digraph Tree {
node [shape=box, style="rounded", color="black", fontname="helvetica"] ;
edge [fontname="helvetica"] ;
0 [label="IsCatamarans <= 0.5\nsquared_error = 37508436662.5\nsamples = 1971\nvalue = 295310.9"] ;
1 [label="Displacement <= 13550.0\nsquared_error = 19276241985.8\nsamples = 1328\nvalue = 223477.9"] ;
0 -> 1 [labeldistance=2.5, labelangle=45, headlabel="True"] ;
2 [label="Length (ft) <= 40.5\nsquared_error = 10028448780.2\nsamples = 1125\nvalue = 196063.7"] ;
1 -> 2 ;
3 [label="YearDis <= 7.5\nsquared_error = 2876527299.1\nsamples = 328\nvalue = 145099.0"] ;
2 -> 3 ;
4 [label="GDP <= 33141.5\nsquared_error = 1890154922.1\nsamples = 108\nvalue = 179157.9"] ;
3 -> 4 ;
5 [label="YearDis <= 2.5\nsquared_error = 974622415.0\nsamples = 36\nvalue = 156017.5"] ;
4 -> 5 ;
6 [label="Draft <= 2.2\nsquared_error = 751460236.4\nsamples = 7\nvalue = 192457.7"] ;
5 -> 6 ;
7 [label="Length (ft) <= 39.5\nsquared_error = 13646884.1\nsamples = 6\nvalue = 175782.1"] ;
6 -> 7 ;
8 [label="SA <= 74.0\nsquared_error = 3331607.8\nsamples = 4\nvalue = 177709.8"] ;
7 -> 8 ;
9 [label="Displacement <= 7470.0\nsquared_error = 133472.2\nsamples = 2\nvalue = 179516.7"] ;
8 -> 9 ;
10 [label="squared_error = 0.0\nsamples = 1\nvalue = 179000.0"] ;
9 -> 10 ;
11 [label="squared_error = 0.0\nsamples = 1\nvalue = 179775.0"] ;
9 -> 11 ;
12 [label="squared_error = 450.0\nsamples = 2\nvalue = 175903.0"] ;
8 -> 12 ;
13 [label="squared_error = 0.0\nsamples = 2\nvalue = 169999.0"] ;
7 -> 13 ;
14 [label="squared_error = 0.0\nsamples = 1\nvalue = 236926.0"] ;
6 -> 14 ;
15 [label="LOA <= 13.0\nsquared_error = 615446248.3\nsamples = 29\nvalue = 146907.4"] ;
5 -> 15 ;
16 [label="Country/Region/State _Greece <= 0.5\nsquared_error = 484409406.6\nsamples = 22\nvalue = 155276.0"] ;
15 -> 16 ;
17 [label="Displacement <= 8565.0\nsquared_error = 543136325.8\nsamples = 18\nvalue = 159858.1"] ;
16 -> 17 ;
18 [label="LOA <= 12.7\nsquared_error = 288237177.4\nsamples = 9\nvalue = 151248.1"] ;
17 -> 18 ;
19 [label="Draft <= 1.9\nsquared_error = 167181919.7\nsamples = 8\nvalue = 145033.3"] ;
18 -> 19 ;
20 [label="GDP <= 12217.0\nsquared_error = 56836074.6\nsamples = 5\nvalue = 154760.0"] ;
19 -> 20 ;
21 [label="squared_error = 0.0\nsamples = 1\nvalue = 163984.0"] ;
20 -> 21 ;
22 [label="YearDis <= 3.5\nsquared_error = 31924485.8\nsamples = 4\nvalue = 151070.4"] ;
20 -> 22 ;
23 [label="LOA <= 12.2\nsquared_error = 246512.2\nsamples = 2\nvalue = 157171.5"] ;
22 -> 23 ;
24 [label="squared_error = 0.0\nsamples = 1\nvalue = 157668.0"] ;
23 -> 24 ;
25 [label="squared_error = 0.0\nsamples = 1\nvalue = 156675.0"] ;
23 -> 25 ;
26 [label="squared_error = 11683778.0\nsamples = 2\nvalue = 147003.0"] ;
22 -> 26 ;
27 [label="Gini <= 32.9\nsquared_error = 3783073.6\nsamples = 3\nvalue = 131416.0"] ;
19 -> 27 ;
28 [label="squared_error = 0.0\nsamples = 1\nvalue = 127526.0"] ;
27 -> 28 ;
29 [label="LWL <= 10.8\nsquared_error = 60.8\nsamples = 2\nvalue = 132388.5"] ;
27 -> 29 ;
30 [label="squared_error = 0.0\nsamples = 1\nvalue = 132402.0"] ;
29 -> 30 ;
31 [label="squared_error = 0.0\nsamples = 1\nvalue = 132384.0"] ;
29 -> 31 ;
32 [label="squared_error = 0.0\nsamples = 1\nvalue = 176107.0"] ;
18 -> 32 ;
33 [label="SA <= 80.9\nsquared_error = 638490964.3\nsamples = 9\nvalue = 174208.1"] ;
17 -> 33 ;
34 [label="YearDis <= 5.5\nsquared_error = 712357663.5\nsamples = 4\nvalue = 160925.0"] ;
33 -> 34 ;
35 [label="Gini <= 32.9\nsquared_error = 8797156.0\nsamples = 2\nvalue = 142656.0"] ;
34 -> 35 ;
36 [label="squared_error = 0.0\nsamples = 1\nvalue = 145622.0"] ;
35 -> 36 ;
37 [label="squared_error = 0.0\nsamples = 1\nvalue = 139690.0"] ;
35 -> 37 ;
38 [label="SA <= 75.9\nsquared_error = 748405449.0\nsamples = 2\nvalue = 179194.0"] ;
34 -> 38 ;
39 [label="squared_error = 0.0\nsamples = 1\nvalue = 151837.0"] ;
38 -> 39 ;
40 [label="squared_error = 0.0\nsamples = 1\nvalue = 206551.0"] ;
38 -> 40 ;
41 [label="YearDis <= 3.5\nsquared_error = 325322506.2\nsamples = 5\nvalue = 184834.6"] ;
33 -> 41 ;
42 [label="squared_error = 0.0\nsamples = 1\nvalue = 163984.0"] ;
41 -> 42 ;
43 [label="YearDis <= 5.0\nsquared_error = 270794532.7\nsamples = 4\nvalue = 190047.2"] ;
41 -> 43 ;
44 [label="Gini <= 32.9\nsquared_error = 419256.2\nsamples = 2\nvalue = 205903.5"] ;
43 -> 44 ;
45 [label="squared_error = 0.0\nsamples = 1\nvalue = 205256.0"] ;
44 -> 45 ;
46 [label="squared_error = 0.0\nsamples = 1\nvalue = 206551.0"] ;
44 -> 46 ;
47 [label="LOA <= 12.4\nsquared_error = 38328481.0\nsamples = 2\nvalue = 174191.0"] ;
43 -> 47 ;
48 [label="squared_error = 0.0\nsamples = 1\nvalue = 180382.0"] ;
47 -> 48 ;
49 [label="squared_error = 0.0\nsamples = 1\nvalue = 168000.0"] ;
47 -> 49 ;
50 [label="YearDis <= 5.5\nsquared_error = 56282796.7\nsamples = 4\nvalue = 141529.8"] ;
16 -> 50 ;
51 [label="squared_error = 0.0\nsamples = 1\nvalue = 128791.0"] ;
50 -> 51 ;
52 [label="Draft <= 2.1\nsquared_error = 2921172.7\nsamples = 3\nvalue = 145776.0"] ;
50 -> 52 ;
53 [label="squared_error = 0.0\nsamples = 1\nvalue = 148193.0"] ;
52 -> 53 ;
54 [label="squared_error = 342.2\nsamples = 2\nvalue = 144567.5"] ;
52 -> 54 ;
55 [label="YearDis <= 5.5\nsquared_error = 280103927.4\nsamples = 7\nvalue = 124591.1"] ;
15 -> 55 ;
56 [label="GDP <= 13528.5\nsquared_error = 20071731.2\nsamples = 4\nvalue = 140764.5"] ;
55 -> 56 ;
57 [label="squared_error = 0.0\nsamples = 1\nvalue = 135000.0"] ;
56 -> 57 ;
58 [label="Country/Region/State _Spain <= 0.5\nsquared_error = 5185501.7\nsamples = 3\nvalue = 143646.8"] ;
56 -> 58 ;
59 [label="squared_error = 0.0\nsamples = 1\nvalue = 145156.0"] ;
58 -> 59 ;
60 [label="squared_error = 5815332.2\nsamples = 2\nvalue = 142137.5"] ;
58 -> 60 ;
61 [label="YearDis <= 6.5\nsquared_error = 16977310.2\nsamples = 3\nvalue = 108417.7"] ;
55 -> 61 ;
62 [label="squared_error = 0.0\nsamples = 1\nvalue = 112359.0"] ;
61 -> 62 ;
63 [label="Beam <= 4.2\nsquared_error = 2886403.6\nsamples = 2\nvalue = 104476.3"] ;
61 -> 63 ;
64 [label="squared_error = 0.0\nsamples = 1\nvalue = 106879.0"] ;
63 -> 64 ;
65 [label="squared_error = 0.0\nsamples = 1\nvalue = 103275.0"] ;
63 -> 65 ;
66 [label="Gini <= 33.3\nsquared_error = 1948278504.9\nsamples = 72\nvalue = 190421.0"] ;
4 -> 66 ;
67 [label="YearDis <= 2.5\nsquared_error = 1289027418.7\nsamples = 26\nvalue = 167997.6"] ;
66 -> 67 ;
68 [label="Beam <= 3.9\nsquared_error = 804710230.8\nsamples = 6\nvalue = 209219.3"] ;
67 -> 68 ;
69 [label="YearDis <= 1.5\nsquared_error = 200000000.0\nsamples = 2\nvalue = 179000.0"] ;
68 -> 69 ;
70 [label="squared_error = 0.0\nsamples = 1\nvalue = 189000.0"] ;
69 -> 70 ;
71 [label="squared_error = 0.0\nsamples = 1\nvalue = 159000.0"] ;
69 -> 71 ;
72 [label="Country/Region/State _British Virgin Islands <= 0.5\nsquared_error = 504765987.4\nsamples = 4\nvalue = 222170.4"] ;
68 -> 72 ;
73 [label="squared_error = 4375980.2\nsamples = 2\nvalue = 204048.2"] ;
72 -> 73 ;
74 [label="Draft <= 2.1\nsquared_error = 150222222.2\nsamples = 2\nvalue = 246333.3"] ;
72 -> 74 ;
75 [label="squared_error = 0.0\nsamples = 1\nvalue = 255000.0"] ;
74 -> 75 ;
76 [label="squared_error = 0.0\nsamples = 1\nvalue = 229000.0"] ;
74 -> 76 ;
77 [label="Draft <= 2.1\nsquared_error = 764836175.0\nsamples = 20\nvalue = 155506.2"] ;
67 -> 77 ;
78 [label="LOA <= 11.6\nsquared_error = 344891968.2\nsamples = 14\nvalue = 145972.6"] ;
77 -> 78 ;
79 [label="Draft <= 2.0\nsquared_error = 21760000.0\nsamples = 3\nvalue = 120200.0"] ;
78 -> 79 ;
80 [label="squared_error = 0.0\nsamples = 1\nvalue = 129000.0"] ;
79 -> 80 ;
81 [label="squared_error = 3000000.0\nsamples = 2\nvalue = 118000.0"] ;
79 -> 81 ;
82 [label="YearDis <= 6.5\nsquared_error = 226024066.1\nsamples = 11\nvalue = 152109.0"] ;
78 -> 82 ;
83 [label="Displacement <= 8565.0\nsquared_error = 132091228.3\nsamples = 10\nvalue = 155457.4"] ;
82 -> 83 ;
84 [label="Displacement <= 7360.0\nsquared_error = 64598521.5\nsamples = 8\nvalue = 152189.7"] ;
83 -> 84 ;
85 [label="Country/Region/State _British Virgin Islands <= 0.5\nsquared_error = 65189606.6\nsamples = 2\nvalue = 145592.4"] ;
84 -> 85 ;
86 [label="squared_error = 0.0\nsamples = 1\nvalue = 155481.0"] ;
85 -> 86 ;
87 [label="squared_error = 0.0\nsamples = 1\nvalue = 139000.0"] ;
85 -> 87 ;
88 [label="YearDis <= 3.5\nsquared_error = 35553514.2\nsamples = 6\nvalue = 155188.5"] ;
84 -> 88 ;
89 [label="squared_error = 0.0\nsamples = 1\nvalue = 159995.0"] ;
88 -> 89 ;
90 [label="Displacement <= 8125.0\nsquared_error = 36973660.0\nsamples = 5\nvalue = 153386.0"] ;
88 -> 90 ;
91 [label="squared_error = 0.0\nsamples = 1\nvalue = 156696.0"] ;
90 -> 91 ;
92 [label="YearDis <= 4.5\nsquared_error = 48640000.0\nsamples = 4\nvalue = 151400.0"] ;
90 -> 92 ;
93 [label="squared_error = 25000000.0\nsamples = 2\nvalue = 154000.0"] ;
92 -> 93 ;
94 [label="squared_error = 56888888.9\nsamples = 2\nvalue = 149666.7"] ;
92 -> 94 ;
95 [label="YearDis <= 5.0\nsquared_error = 131382050.0\nsamples = 2\nvalue = 172885.0"] ;
83 -> 95 ;
96 [label="squared_error = 0.0\nsamples = 1\nvalue = 180990.0"] ;
95 -> 96 ;
97 [label="squared_error = 0.0\nsamples = 1\nvalue = 156675.0"] ;
95 -> 97 ;
98 [label="squared_error = 0.0\nsamples = 1\nvalue = 120299.0"] ;
82 -> 98 ;
99 [label="YearDis <= 5.5\nsquared_error = 733156066.0\nsamples = 6\nvalue = 190916.4"] ;
77 -> 99 ;
100 [label="Gini <= 30.7\nsquared_error = 122716853.2\nsamples = 4\nvalue = 170795.5"] ;
99 -> 100 ;
101 [label="YearDis <= 4.5\nsquared_error = 100831722.2\nsamples = 2\nvalue = 178884.5"] ;
100 -> 101 ;
102 [label="squared_error = 0.0\nsamples = 1\nvalue = 168843.0"] ;
101 -> 102 ;
103 [label="squared_error = 0.0\nsamples = 1\nvalue = 188926.0"] ;
101 -> 103 ;
104 [label="Country/Region/State _Germany <= 0.5\nsquared_error = 13738142.2\nsamples = 2\nvalue = 162706.5"] ;
100 -> 104 ;
105 [label="squared_error = 0.0\nsamples = 1\nvalue = 159000.0"] ;
104 -> 105 ;
106 [label="squared_error = 0.0\nsamples = 1\nvalue = 166413.0"] ;
104 -> 106 ;
107 [label="GDP <= 46485.0\nsquared_error = 287536186.9\nsamples = 2\nvalue = 217744.3"] ;
99 -> 107 ;
108 [label="squared_error = 0.0\nsamples = 1\nvalue = 241725.0"] ;
107 -> 108 ;
109 [label="squared_error = 0.0\nsamples = 1\nvalue = 205754.0"] ;
107 -> 109 ;
110 [label="Draft <= 1.8\nsquared_error = 1854644117.0\nsamples = 46\nvalue = 204195.4"] ;
66 -> 110 ;
111 [label="Gini <= 45.4\nsquared_error = 52128400.0\nsamples = 2\nvalue = 114390.0"] ;
110 -> 111 ;
112 [label="squared_error = 0.0\nsamples = 1\nvalue = 99950.0"] ;
111 -> 112 ;
113 [label="squared_error = 0.0\nsamples = 1\nvalue = 118000.0"] ;
111 -> 113 ;
114 [label="Draft <= 1.9\nsquared_error = 1325191845.7\nsamples = 44\nvalue = 211103.5"] ;
110 -> 114 ;
115 [label="Beam <= 4.0\nsquared_error = 323155990.2\nsamples = 2\nvalue = 249577.3"] ;
114 -> 115 ;
116 [label="squared_error = 0.0\nsamples = 1\nvalue = 275000.0"] ;
115 -> 116 ;
117 [label="squared_error = 0.0\nsamples = 1\nvalue = 236866.0"] ;
115 -> 117 ;
118 [label="Displacement <= 8920.0\nsquared_error = 1261253018.3\nsamples = 42\nvalue = 207190.9"] ;
114 -> 118 ;
119 [label="Draft <= 2.0\nsquared_error = 1016225753.8\nsamples = 33\nvalue = 214474.8"] ;
118 -> 119 ;
120 [label="YearDis <= 2.0\nsquared_error = 775973468.2\nsamples = 8\nvalue = 184720.0"] ;
119 -> 120 ;
121 [label="Length (ft) <= 38.5\nsquared_error = 621978660.2\nsamples = 2\nvalue = 229060.5"] ;
120 -> 121 ;
122 [label="squared_error = 0.0\nsamples = 1\nvalue = 254000.0"] ;
121 -> 122 ;
123 [label="squared_error = 0.0\nsamples = 1\nvalue = 204121.0"] ;
121 -> 123 ;
124 [label="LOA <= 11.6\nsquared_error = 200072188.9\nsamples = 6\nvalue = 173634.9"] ;
120 -> 124 ;
125 [label="Beam <= 3.4\nsquared_error = 8471010.2\nsamples = 2\nvalue = 196089.5"] ;
124 -> 125 ;
126 [label="squared_error = 0.0\nsamples = 1\nvalue = 193179.0"] ;
125 -> 126 ;
127 [label="squared_error = 0.0\nsamples = 1\nvalue = 199000.0"] ;
125 -> 127 ;
128 [label="Gini <= 47.5\nsquared_error = 39845833.3\nsamples = 4\nvalue = 166150.0"] ;
124 -> 128 ;
129 [label="Country/Region/State _Ohio <= 0.5\nsquared_error = 2102500.0\nsamples = 2\nvalue = 173450.0"] ;
128 -> 129 ;
130 [label="squared_error = 0.0\nsamples = 1\nvalue = 172000.0"] ;
129 -> 130 ;
131 [label="squared_error = 0.0\nsamples = 1\nvalue = 174900.0"] ;
129 -> 131 ;
132 [label="squared_error = 18750000.0\nsamples = 2\nvalue = 162500.0"] ;
128 -> 132 ;
133 [label="LOA <= 11.5\nsquared_error = 759640312.8\nsamples = 25\nvalue = 222976.1"] ;
119 -> 133 ;
134 [label="YearDis <= 4.5\nsquared_error = 191282237.9\nsamples = 7\nvalue = 200012.8"] ;
133 -> 134 ;
135 [label="YearDis <= 3.5\nsquared_error = 88113600.0\nsamples = 4\nvalue = 208780.0"] ;
134 -> 135 ;
136 [label="Country/Region/State _South Carolina <= 0.5\nsquared_error = 80251875.0\nsamples = 3\nvalue = 211225.0"] ;
135 -> 136 ;
137 [label="Length (ft) <= 37.5\nsquared_error = 50000000.0\nsamples = 2\nvalue = 215000.0"] ;
136 -> 137 ;
138 [label="squared_error = 0.0\nsamples = 1\nvalue = 205000.0"] ;
137 -> 138 ;
139 [label="squared_error = 0.0\nsamples = 1\nvalue = 220000.0"] ;
137 -> 139 ;
140 [label="squared_error = 0.0\nsamples = 1\nvalue = 199900.0"] ;
136 -> 140 ;
141 [label="squared_error = 0.0\nsamples = 1\nvalue = 199000.0"] ;
135 -> 141 ;
142 [label="GDP <= 68020.2\nsquared_error = 21609200.9\nsamples = 3\nvalue = 185400.7"] ;
134 -> 142 ;
143 [label="squared_error = 0.0\nsamples = 1\nvalue = 179000.0"] ;
142 -> 143 ;
144 [label="Country/Region/State _California <= 0.5\nsquared_error = 1687401.0\nsamples = 2\nvalue = 188601.0"] ;
142 -> 144 ;
145 [label="squared_error = 0.0\nsamples = 1\nvalue = 187302.0"] ;
144 -> 145 ;
146 [label="squared_error = 0.0\nsamples = 1\nvalue = 189900.0"] ;
144 -> 146 ;
147 [label="YearDis <= 5.5\nsquared_error = 725507029.4\nsamples = 18\nvalue = 229780.1"] ;
133 -> 147 ;
148 [label="Displacement <= 8143.0\nsquared_error = 171220201.4\nsamples = 8\nvalue = 245707.1"] ;
147 -> 148 ;
149 [label="Displacement <= 7165.5\nsquared_error = 132749221.2\nsamples = 4\nvalue = 255250.7"] ;
148 -> 149 ;
150 [label="Beam <= 3.8\nsquared_error = 16318170.2\nsamples = 2\nvalue = 247567.8"] ;
149 -> 150 ;
151 [label="squared_error = 0.0\nsamples = 1\nvalue = 240571.0"] ;
150 -> 151 ;
152 [label="squared_error = 0.0\nsamples = 1\nvalue = 249900.0"] ;
150 -> 152 ;
153 [label="YearDis <= 3.5\nsquared_error = 11448072.2\nsamples = 2\nvalue = 270616.5"] ;
149 -> 153 ;
154 [label="squared_error = 0.0\nsamples = 1\nvalue = 274000.0"] ;
153 -> 154 ;
155 [label="squared_error = 0.0\nsamples = 1\nvalue = 267233.0"] ;
153 -> 155 ;
156 [label="GDP <= 75982.6\nsquared_error = 80532450.2\nsamples = 4\nvalue = 238549.5"] ;
148 -> 156 ;
157 [label="SA <= 83.7\nsquared_error = 23755788.0\nsamples = 3\nvalue = 235628.0"] ;
156 -> 157 ;
158 [label="squared_error = 0.0\nsamples = 2\nvalue = 239849.0"] ;
157 -> 158 ;
159 [label="squared_error = 0.0\nsamples = 1\nvalue = 230000.0"] ;
157 -> 159 ;
160 [label="squared_error = 0.0\nsamples = 1\nvalue = 259000.0"] ;
156 -> 160 ;
161 [label="YearDis <= 6.5\nsquared_error = 755047669.2\nsamples = 10\nvalue = 212627.8"] ;
147 -> 161 ;
162 [label="GDP <= 49830.1\nsquared_error = 524171863.0\nsamples = 5\nvalue = 187427.6"] ;
161 -> 162 ;
163 [label="GDP <= 38210.0\nsquared_error = 115132190.8\nsamples = 4\nvalue = 177034.5"] ;
162 -> 163 ;
164 [label="squared_error = 0.0\nsamples = 1\nvalue = 160340.0"] ;
163 -> 164 ;
165 [label="Beam <= 4.2\nsquared_error = 29640107.6\nsamples = 3\nvalue = 182599.3"] ;
163 -> 165 ;
166 [label="squared_error = 361.0\nsamples = 2\nvalue = 186449.0"] ;
165 -> 166 ;
167 [label="squared_error = 0.0\nsamples = 1\nvalue = 174900.0"] ;
165 -> 167 ;
168 [label="squared_error = 0.0\nsamples = 1\nvalue = 229000.0"] ;
162 -> 168 ;
169 [label="Gini <= 34.6\nsquared_error = 254369948.0\nsamples = 5\nvalue = 228378.0"] ;
161 -> 169 ;
170 [label="squared_error = 0.0\nsamples = 1\nvalue = 255096.0"] ;
169 -> 170 ;
171 [label="Country/Region/State _Maryland <= 0.5\nsquared_error = 21892586.7\nsamples = 4\nvalue = 219472.0"] ;
169 -> 171 ;
172 [label="SA <= 73.4\nsquared_error = 4483235.8\nsamples = 3\nvalue = 217566.4"] ;
171 -> 172 ;
173 [label="squared_error = 0.0\nsamples = 1\nvalue = 215000.0"] ;
172 -> 173 ;
174 [label="Country/Region/State _United Kingdom <= 0.5\nsquared_error = 153827.6\nsamples = 2\nvalue = 219277.3"] ;
172 -> 174 ;
175 [label="squared_error = 0.0\nsamples = 1\nvalue = 219000.0"] ;
174 -> 175 ;
176 [label="squared_error = 0.0\nsamples = 1\nvalue = 219832.0"] ;
174 -> 176 ;
177 [label="squared_error = 0.0\nsamples = 1\nvalue = 229000.0"] ;
171 -> 177 ;
178 [label="YearDis <= 6.0\nsquared_error = 1330171037.1\nsamples = 9\nvalue = 183778.6"] ;
118 -> 178 ;
179 [label="YearDis <= 3.5\nsquared_error = 124137705.9\nsamples = 5\nvalue = 205261.8"] ;
178 -> 179 ;
180 [label="YearDis <= 2.0\nsquared_error = 17409843.0\nsamples = 2\nvalue = 213778.0"] ;
179 -> 180 ;
181 [label="squared_error = 0.0\nsamples = 1\nvalue = 216187.0"] ;
180 -> 181 ;
182 [label="squared_error = 0.0\nsamples = 1\nvalue = 206551.0"] ;
180 -> 182 ;
183 [label="Gini <= 34.6\nsquared_error = 85812540.8\nsamples = 3\nvalue = 196745.5"] ;
179 -> 183 ;
184 [label="squared_error = 0.0\nsamples = 1\nvalue = 188278.0"] ;
183 -> 184 ;
185 [label="Beam <= 4.3\nsquared_error = 28227969.0\nsamples = 2\nvalue = 205213.0"] ;
183 -> 185 ;
186 [label="squared_error = 0.0\nsamples = 1\nvalue = 199900.0"] ;
185 -> 186 ;
187 [label="squared_error = 0.0\nsamples = 1\nvalue = 210526.0"] ;
185 -> 187 ;
188 [label="Country/Region/State _Italy <= 0.5\nsquared_error = 1502353820.6\nsamples = 4\nvalue = 155134.3"] ;
178 -> 188 ;
189 [label="LOA <= 13.6\nsquared_error = 308002500.0\nsamples = 2\nvalue = 202450.0"] ;
188 -> 189 ;
190 [label="squared_error = 0.0\nsamples = 1\nvalue = 220000.0"] ;
189 -> 190 ;
191 [label="squared_error = 0.0\nsamples = 1\nvalue = 184900.0"] ;
189 -> 191 ;
192 [label="Draft <= 2.2\nsquared_error = 420450246.8\nsamples = 2\nvalue = 131476.5"] ;
188 -> 192 ;
193 [label="squared_error = 0.0\nsamples = 1\nvalue = 143315.0"] ;
192 -> 193 ;
194 [label="squared_error = 0.0\nsamples = 1\nvalue = 95961.0"] ;
192 -> 194 ;
195 [label="Beam <= 3.9\nsquared_error = 2501681376.5\nsamples = 220\nvalue = 128120.1"] ;
3 -> 195 ;
196 [label="LOA <= 12.4\nsquared_error = 2364985676.0\nsamples = 35\nvalue = 166930.0"] ;
195 -> 196 ;
197 [label="SA <= 79.5\nsquared_error = 1004372785.3\nsamples = 33\nvalue = 159738.7"] ;
196 -> 197 ;
198 [label="Displacement <= 8800.0\nsquared_error = 655593929.3\nsamples = 21\nvalue = 142898.9"] ;
197 -> 198 ;
199 [label="Country/Region/State _Wisconsin <= 0.5\nsquared_error = 305629151.9\nsamples = 19\nvalue = 138131.7"] ;
198 -> 199 ;
200 [label="LWL <= 10.6\nsquared_error = 273487043.4\nsamples = 18\nvalue = 136278.8"] ;
199 -> 200 ;
201 [label="Country/Region/State _Spain <= 0.5\nsquared_error = 77810850.7\nsamples = 9\nvalue = 128053.8"] ;
200 -> 201 ;
202 [label="LWL <= 9.9\nsquared_error = 39937859.5\nsamples = 8\nvalue = 126352.2"] ;
201 -> 202 ;
203 [label="squared_error = 0.0\nsamples = 1\nvalue = 109000.0"] ;
202 -> 203 ;
204 [label="Country/Region/State _Greece <= 0.5\nsquared_error = 18066861.8\nsamples = 7\nvalue = 127687.0"] ;
202 -> 204 ;
205 [label="Country/Region/State _Texas <= 0.5\nsquared_error = 5225821.9\nsamples = 6\nvalue = 129262.1"] ;
204 -> 205 ;
206 [label="YearDis <= 11.5\nsquared_error = 2251942.0\nsamples = 5\nvalue = 128698.3"] ;
205 -> 206 ;
207 [label="squared_error = 0.0\nsamples = 1\nvalue = 132436.0"] ;
206 -> 207 ;
208 [label="YearDis <= 13.0\nsquared_error = 777416.9\nsamples = 4\nvalue = 128283.0"] ;
206 -> 208 ;
209 [label="squared_error = 46.2\nsamples = 2\nvalue = 127529.4"] ;
208 -> 209 ;
210 [label="GDP <= 72503.8\nsquared_error = 151875.0\nsamples = 2\nvalue = 129225.0"] ;
208 -> 210 ;
211 [label="squared_error = 0.0\nsamples = 1\nvalue = 129000.0"] ;
210 -> 211 ;
212 [label="squared_error = 0.0\nsamples = 1\nvalue = 129900.0"] ;
210 -> 212 ;
213 [label="squared_error = 0.0\nsamples = 1\nvalue = 134900.0"] ;
205 -> 213 ;
214 [label="squared_error = 0.0\nsamples = 1\nvalue = 119024.0"] ;
204 -> 214 ;
215 [label="squared_error = 0.0\nsamples = 1\nvalue = 151876.0"] ;
201 -> 215 ;
216 [label="YearDis <= 13.5\nsquared_error = 332998648.9\nsamples = 9\nvalue = 145091.2"] ;
200 -> 216 ;
217 [label="squared_error = 0.0\nsamples = 1\nvalue = 91125.0"] ;
216 -> 217 ;
218 [label="GDP <= 35037.5\nsquared_error = 117353977.0\nsamples = 8\nvalue = 149242.5"] ;
216 -> 218 ;
219 [label="LWL <= 10.9\nsquared_error = 68741106.4\nsamples = 4\nvalue = 142077.9"] ;
218 -> 219 ;
220 [label="squared_error = 0.0\nsamples = 1\nvalue = 157889.0"] ;
219 -> 220 ;
221 [label="Gini <= 43.1\nsquared_error = 31588355.6\nsamples = 3\nvalue = 139442.7"] ;
219 -> 221 ;
222 [label="squared_error = 0.0\nsamples = 1\nvalue = 132436.0"] ;
221 -> 222 ;
223 [label="squared_error = 10562500.0\nsamples = 2\nvalue = 142946.0"] ;
221 -> 223 ;
224 [label="YearDis <= 14.5\nsquared_error = 44314225.8\nsamples = 4\nvalue = 157601.2"] ;
218 -> 224 ;
225 [label="Gini <= 36.5\nsquared_error = 22476277.6\nsamples = 2\nvalue = 163352.3"] ;
224 -> 225 ;
226 [label="squared_error = 0.0\nsamples = 1\nvalue = 170057.0"] ;
225 -> 226 ;
227 [label="squared_error = 0.0\nsamples = 1\nvalue = 160000.0"] ;
225 -> 227 ;
228 [label="squared_error = 338.0\nsamples = 2\nvalue = 151850.0"] ;
224 -> 228 ;
229 [label="squared_error = 0.0\nsamples = 1\nvalue = 165000.0"] ;
199 -> 229 ;
230 [label="Country/Region/State _United Kingdom <= 0.5\nsquared_error = 267829590.2\nsamples = 2\nvalue = 216790.5"] ;
198 -> 230 ;
231 [label="squared_error = 0.0\nsamples = 1\nvalue = 200425.0"] ;
230 -> 231 ;
232 [label="squared_error = 0.0\nsamples = 1\nvalue = 233156.0"] ;
230 -> 232 ;
233 [label="Country/Region/State _France <= 0.5\nsquared_error = 406573638.7\nsamples = 12\nvalue = 186201.1"] ;
197 -> 233 ;
234 [label="Country/Region/State _Italy <= 0.5\nsquared_error = 167637269.6\nsamples = 9\nvalue = 192643.3"] ;
233 -> 234 ;
235 [label="Gini <= 28.5\nsquared_error = 71159407.4\nsamples = 7\nvalue = 197477.0"] ;
234 -> 235 ;
236 [label="squared_error = 0.0\nsamples = 1\nvalue = 212572.0"] ;
235 -> 236 ;
237 [label="YearDis <= 10.5\nsquared_error = 38713387.1\nsamples = 6\nvalue = 194961.2"] ;
235 -> 237 ;
238 [label="squared_error = 0.0\nsamples = 1\nvalue = 182251.0"] ;
237 -> 238 ;
239 [label="GDP <= 41028.5\nsquared_error = 26211463.3\nsamples = 5\nvalue = 196116.6"] ;
237 -> 239 ;
240 [label="squared_error = 0.0\nsamples = 1\nvalue = 204121.0"] ;
239 -> 240 ;
241 [label="Beam <= 3.7\nsquared_error = 14634548.8\nsamples = 4\nvalue = 194337.9"] ;
239 -> 241 ;
242 [label="YearDis <= 14.5\nsquared_error = 4975535.3\nsamples = 3\nvalue = 192584.1"] ;
241 -> 242 ;
243 [label="GDP <= 64715.9\nsquared_error = 1046956.7\nsamples = 2\nvalue = 190772.2"] ;
242 -> 243 ;
244 [label="squared_error = 0.0\nsamples = 1\nvalue = 191363.0"] ;
243 -> 244 ;
245 [label="squared_error = 0.0\nsamples = 1\nvalue = 189000.0"] ;
243 -> 245 ;
246 [label="squared_error = 0.0\nsamples = 1\nvalue = 195000.0"] ;
242 -> 246 ;
247 [label="squared_error = 0.0\nsamples = 1\nvalue = 200476.0"] ;
241 -> 247 ;
248 [label="YearDis <= 11.5\nsquared_error = 450.0\nsamples = 2\nvalue = 170086.0"] ;
234 -> 248 ;
249 [label="squared_error = 0.0\nsamples = 1\nvalue = 170101.0"] ;
248 -> 249 ;
250 [label="squared_error = 0.0\nsamples = 1\nvalue = 170056.0"] ;
248 -> 250 ;
251 [label="LWL <= 10.6\nsquared_error = 496041474.2\nsamples = 3\nvalue = 158821.8"] ;
233 -> 251 ;
252 [label="Beam <= 3.7\nsquared_error = 9220332.2\nsamples = 2\nvalue = 136653.5"] ;
251 -> 252 ;
253 [label="squared_error = 0.0\nsamples = 1\nvalue = 133617.0"] ;
252 -> 253 ;
254 [label="squared_error = 0.0\nsamples = 1\nvalue = 139690.0"] ;
252 -> 254 ;
255 [label="squared_error = 0.0\nsamples = 1\nvalue = 180990.0"] ;
251 -> 255 ;
256 [label="Beam <= 3.7\nsquared_error = 4397409.0\nsamples = 2\nvalue = 361097.0"] ;
196 -> 256 ;
257 [label="squared_error = 0.0\nsamples = 1\nvalue = 359000.0"] ;
256 -> 257 ;
258 [label="squared_error = 0.0\nsamples = 1\nvalue = 363194.0"] ;
256 -> 258 ;
259 [label="Displacement <= 9910.5\nsquared_error = 2168932111.7\nsamples = 185\nvalue = 120385.7"] ;
195 -> 259 ;
260 [label="GDP <= 44770.0\nsquared_error = 1289674241.8\nsamples = 170\nvalue = 115052.4"] ;
259 -> 260 ;
261 [label="YearDis <= 12.5\nsquared_error = 1189334438.2\nsamples = 122\nvalue = 108080.6"] ;
260 -> 261 ;
262 [label="Country/Region/State _Italy <= 0.5\nsquared_error = 1590477766.9\nsamples = 66\nvalue = 117243.0"] ;
261 -> 262 ;
263 [label="LWL <= 11.4\nsquared_error = 790242466.6\nsamples = 57\nvalue = 112190.9"] ;
262 -> 263 ;
264 [label="Gini <= 34.0\nsquared_error = 653954618.8\nsamples = 54\nvalue = 109926.4"] ;
263 -> 264 ;
265 [label="Draft <= 2.0\nsquared_error = 776759904.0\nsamples = 26\nvalue = 118456.6"] ;
264 -> 265 ;
266 [label="LWL <= 10.7\nsquared_error = 457420326.4\nsamples = 20\nvalue = 110278.9"] ;
265 -> 266 ;
267 [label="Country/Region/State _Aruba <= 0.5\nsquared_error = 284143422.1\nsamples = 10\nvalue = 100251.6"] ;
266 -> 267 ;
268 [label="GDP <= 22456.0\nsquared_error = 89938970.1\nsamples = 9\nvalue = 96601.7"] ;
267 -> 268 ;
269 [label="squared_error = 1195742.2\nsamples = 2\nvalue = 83692.5"] ;
268 -> 269 ;
270 [label="Beam <= 3.9\nsquared_error = 74009234.9\nsamples = 7\nvalue = 98587.8"] ;
268 -> 270 ;
271 [label="LOA <= 12.1\nsquared_error = 24256810.2\nsamples = 4\nvalue = 94074.6"] ;
270 -> 271 ;
272 [label="Country/Region/State _Spain <= 0.5\nsquared_error = 58951.8\nsamples = 2\nvalue = 96714.4"] ;
271 -> 272 ;
273 [label="squared_error = 0.0\nsamples = 1\nvalue = 96593.0"] ;
272 -> 273 ;
274 [label="squared_error = 0.0\nsamples = 1\nvalue = 97200.0"] ;
272 -> 274 ;
275 [label="GDP <= 35037.5\nsquared_error = 23775376.0\nsamples = 2\nvalue = 87475.0"] ;
271 -> 275 ;
276 [label="squared_error = 0.0\nsamples = 1\nvalue = 82599.0"] ;
275 -> 276 ;
277 [label="squared_error = 0.0\nsamples = 1\nvalue = 92351.0"] ;
275 -> 277 ;
278 [label="Gini <= 31.1\nsquared_error = 80565540.1\nsamples = 3\nvalue = 103853.2"] ;
270 -> 278 ;
279 [label="squared_error = 0.0\nsamples = 1\nvalue = 123899.0"] ;
278 -> 279 ;
280 [label="GDP <= 36164.0\nsquared_error = 238144.0\nsamples = 2\nvalue = 99844.0"] ;
278 -> 280 ;
281 [label="squared_error = 0.0\nsamples = 1\nvalue = 100820.0"] ;
280 -> 281 ;
282 [label="squared_error = 0.0\nsamples = 1\nvalue = 99600.0"] ;
280 -> 282 ;
283 [label="squared_error = 0.0\nsamples = 1\nvalue = 155000.0"] ;
267 -> 283 ;
284 [label="YearDis <= 10.5\nsquared_error = 436808304.9\nsamples = 10\nvalue = 119716.3"] ;
266 -> 284 ;
285 [label="LOA <= 12.6\nsquared_error = 368544787.7\nsamples = 4\nvalue = 135925.0"] ;
284 -> 285 ;
286 [label="squared_error = 0.0\nsamples = 1\nvalue = 145801.0"] ;
285 -> 286 ;
287 [label="YearDis <= 8.5\nsquared_error = 479665649.5\nsamples = 3\nvalue = 130987.0"] ;
285 -> 287 ;
288 [label="squared_error = 673869681.0\nsamples = 2\nvalue = 142934.0"] ;
287 -> 288 ;
289 [label="squared_error = 0.0\nsamples = 1\nvalue = 119040.0"] ;
287 -> 289 ;
290 [label="Draft <= 1.9\nsquared_error = 252574695.1\nsamples = 6\nvalue = 110875.2"] ;
284 -> 290 ;
291 [label="YearDis <= 11.5\nsquared_error = 249525.6\nsamples = 3\nvalue = 96201.0"] ;
290 -> 291 ;
292 [label="squared_error = 0.0\nsamples = 1\nvalue = 95948.0"] ;
291 -> 292 ;
293 [label="Displacement <= 8741.5\nsquared_error = 383780.2\nsamples = 2\nvalue = 96580.5"] ;
291 -> 293 ;
294 [label="squared_error = 0.0\nsamples = 1\nvalue = 95961.0"] ;
293 -> 294 ;
295 [label="squared_error = 0.0\nsamples = 1\nvalue = 97200.0"] ;
293 -> 295 ;
296 [label="GDP <= 22456.0\nsquared_error = 133866817.9\nsamples = 3\nvalue = 123103.7"] ;
290 -> 296 ;
297 [label="Draft <= 2.0\nsquared_error = 4366926.8\nsamples = 2\nvalue = 131195.5"] ;
296 -> 297 ;
298 [label="squared_error = 0.0\nsamples = 1\nvalue = 132402.0"] ;
297 -> 298 ;
299 [label="squared_error = 0.0\nsamples = 1\nvalue = 127576.0"] ;
297 -> 299 ;
300 [label="squared_error = 0.0\nsamples = 1\nvalue = 106920.0"] ;
296 -> 300 ;
301 [label="Country/Region/State _Spain <= 0.5\nsquared_error = 803358676.9\nsamples = 6\nvalue = 148441.7"] ;
265 -> 301 ;
302 [label="GDP <= 27912.5\nsquared_error = 277372089.8\nsamples = 3\nvalue = 126071.6"] ;
301 -> 302 ;
303 [label="squared_error = 0.0\nsamples = 1\nvalue = 105679.0"] ;
302 -> 303 ;
304 [label="Country/Region/State _British Virgin Islands <= 0.5\nsquared_error = 222222.2\nsamples = 2\nvalue = 139666.7"] ;
302 -> 304 ;
305 [label="squared_error = 0.0\nsamples = 1\nvalue = 139000.0"] ;
304 -> 305 ;
306 [label="squared_error = 0.0\nsamples = 1\nvalue = 140000.0"] ;
304 -> 306 ;
307 [label="SA <= 81.3\nsquared_error = 53410990.7\nsamples = 3\nvalue = 176404.2"] ;
301 -> 307 ;
308 [label="YearDis <= 10.0\nsquared_error = 1311120.2\nsamples = 2\nvalue = 180584.7"] ;
307 -> 308 ;
309 [label="squared_error = 0.0\nsamples = 1\nvalue = 179775.0"] ;
308 -> 309 ;
310 [label="squared_error = 0.0\nsamples = 1\nvalue = 182204.0"] ;
308 -> 310 ;
311 [label="squared_error = 0.0\nsamples = 1\nvalue = 163863.0"] ;
307 -> 311 ;
312 [label="GDP <= 33038.5\nsquared_error = 414729909.0\nsamples = 28\nvalue = 102137.9"] ;
264 -> 312 ;
313 [label="Draft <= 2.3\nsquared_error = 331146854.6\nsamples = 26\nvalue = 105001.3"] ;
312 -> 313 ;
314 [label="Country/Region/State _Grenada <= 0.5\nsquared_error = 272433257.6\nsamples = 24\nvalue = 103271.2"] ;
313 -> 314 ;
315 [label="YearDis <= 11.5\nsquared_error = 261793640.4\nsamples = 22\nvalue = 105273.7"] ;
314 -> 315 ;
316 [label="Gini <= 46.0\nsquared_error = 234421954.2\nsamples = 16\nvalue = 109965.6"] ;
315 -> 316 ;
317 [label="YearDis <= 8.5\nsquared_error = 230693970.7\nsamples = 14\nvalue = 112808.7"] ;
316 -> 317 ;
318 [label="squared_error = 197139893.0\nsamples = 3\nvalue = 106844.2"] ;
317 -> 318 ;
319 [label="SA <= 64.6\nsquared_error = 226067436.5\nsamples = 11\nvalue = 114796.9"] ;
317 -> 319 ;
320 [label="Gini <= 36.5\nsquared_error = 87881417.9\nsamples = 8\nvalue = 111205.1"] ;
319 -> 320 ;
321 [label="YearDis <= 9.5\nsquared_error = 97211165.4\nsamples = 6\nvalue = 110121.0"] ;
320 -> 321 ;
322 [label="squared_error = 107383891.5\nsamples = 4\nvalue = 111456.0"] ;
321 -> 322 ;
323 [label="squared_error = 20875761.0\nsamples = 2\nvalue = 104781.0"] ;
321 -> 323 ;
324 [label="squared_error = 5975580.2\nsamples = 2\nvalue = 116625.5"] ;
320 -> 324 ;
325 [label="Length (ft) <= 39.5\nsquared_error = 520793360.7\nsamples = 3\nvalue = 129164.0"] ;
319 -> 325 ;
326 [label="squared_error = 0.0\nsamples = 1\nvalue = 127543.0"] ;
325 -> 326 ;
327 [label="squared_error = 779219310.2\nsamples = 2\nvalue = 129974.5"] ;
325 -> 327 ;
328 [label="Country/Region/State _Saint Vincent and the Grenadines <= 0.5\nsquared_error = 10562500.0\nsamples = 2\nvalue = 95750.0"] ;
316 -> 328 ;
329 [label="squared_error = 0.0\nsamples = 1\nvalue = 99000.0"] ;
328 -> 329 ;
330 [label="squared_error = 0.0\nsamples = 1\nvalue = 92500.0"] ;
328 -> 330 ;
331 [label="LWL <= 10.5\nsquared_error = 147856033.0\nsamples = 6\nvalue = 94013.3"] ;
315 -> 331 ;
332 [label="squared_error = 0.0\nsamples = 1\nvalue = 115396.0"] ;
331 -> 332 ;
333 [label="Draft <= 2.1\nsquared_error = 107837584.9\nsamples = 5\nvalue = 91637.4"] ;
331 -> 333 ;
334 [label="Beam <= 3.9\nsquared_error = 89238949.8\nsamples = 4\nvalue = 88323.9"] ;
333 -> 334 ;
335 [label="squared_error = 0.0\nsamples = 1\nvalue = 78955.0"] ;
334 -> 335 ;
336 [label="squared_error = 87044652.9\nsamples = 3\nvalue = 89885.3"] ;
334 -> 336 ;
337 [label="squared_error = 0.0\nsamples = 1\nvalue = 103235.0"] ;
333 -> 337 ;
338 [label="Displacement <= 8730.0\nsquared_error = 39062500.0\nsamples = 2\nvalue = 86250.0"] ;
314 -> 338 ;
339 [label="squared_error = 0.0\nsamples = 1\nvalue = 80000.0"] ;
338 -> 339 ;
340 [label="squared_error = 0.0\nsamples = 1\nvalue = 92500.0"] ;
338 -> 340 ;
341 [label="YearDis <= 10.0\nsquared_error = 309320156.2\nsamples = 2\nvalue = 137872.5"] ;
313 -> 341 ;
342 [label="squared_error = 0.0\nsamples = 1\nvalue = 155460.0"] ;
341 -> 342 ;
343 [label="squared_error = 0.0\nsamples = 1\nvalue = 120285.0"] ;
341 -> 343 ;
344 [label="YearDis <= 8.5\nsquared_error = 552884682.2\nsamples = 2\nvalue = 83048.5"] ;
312 -> 344 ;
345 [label="squared_error = 0.0\nsamples = 1\nvalue = 106562.0"] ;
344 -> 345 ;
346 [label="squared_error = 0.0\nsamples = 1\nvalue = 59535.0"] ;
344 -> 346 ;
347 [label="Displacement <= 7787.5\nsquared_error = 1193665316.8\nsamples = 3\nvalue = 162011.5"] ;
263 -> 347 ;
348 [label="squared_error = 0.0\nsamples = 1\nvalue = 127543.0"] ;
347 -> 348 ;
349 [label="Gini <= 32.6\nsquared_error = 11175649.0\nsamples = 2\nvalue = 196480.0"] ;
347 -> 349 ;
350 [label="squared_error = 0.0\nsamples = 1\nvalue = 193137.0"] ;
349 -> 350 ;
351 [label="squared_error = 0.0\nsamples = 1\nvalue = 199823.0"] ;
349 -> 351 ;
352 [label="LOA <= 12.3\nsquared_error = 5201227637.1\nsamples = 9\nvalue = 146292.0"] ;
262 -> 352 ;
353 [label="Draft <= 2.0\nsquared_error = 179528065.2\nsamples = 6\nvalue = 109321.2"] ;
352 -> 353 ;
354 [label="YearDis <= 11.5\nsquared_error = 95791045.2\nsamples = 5\nvalue = 106280.7"] ;
353 -> 354 ;
355 [label="YearDis <= 10.5\nsquared_error = 68863888.9\nsamples = 4\nvalue = 103090.9"] ;
354 -> 355 ;
356 [label="squared_error = 0.0\nsamples = 1\nvalue = 115396.0"] ;
355 -> 356 ;
357 [label="LWL <= 10.5\nsquared_error = 24522473.5\nsamples = 3\nvalue = 98989.2"] ;
355 -> 357 ;
358 [label="squared_error = 0.0\nsamples = 1\nvalue = 109323.0"] ;
357 -> 358 ;
359 [label="Length (ft) <= 39.5\nsquared_error = 3797821.4\nsamples = 2\nvalue = 96922.4"] ;
357 -> 359 ;
360 [label="squared_error = 0.0\nsamples = 1\nvalue = 100820.0"] ;
359 -> 360 ;
361 [label="squared_error = 0.0\nsamples = 1\nvalue = 95948.0"] ;
359 -> 361 ;
362 [label="squared_error = 0.0\nsamples = 1\nvalue = 119040.0"] ;
354 -> 362 ;
363 [label="squared_error = 0.0\nsamples = 1\nvalue = 139726.0"] ;
353 -> 363 ;
364 [label="Draft <= 1.8\nsquared_error = 6626403260.2\nsamples = 3\nvalue = 227627.8"] ;
352 -> 364 ;
365 [label="squared_error = 0.0\nsamples = 1\nvalue = 69238.0"] ;
364 -> 365 ;
366 [label="squared_error = 443213842.7\nsamples = 2\nvalue = 267225.2"] ;
364 -> 366 ;
367 [label="GDP <= 41620.5\nsquared_error = 437454508.9\nsamples = 56\nvalue = 96439.0"] ;
261 -> 367 ;
368 [label="Draft <= 1.9\nsquared_error = 252250572.6\nsamples = 53\nvalue = 94048.7"] ;
367 -> 368 ;
369 [label="Country/Region/State _Greece <= 0.5\nsquared_error = 193951038.3\nsamples = 28\nvalue = 87422.6"] ;
368 -> 369 ;
370 [label="Beam <= 3.9\nsquared_error = 126145857.2\nsamples = 21\nvalue = 93335.0"] ;
369 -> 370 ;
371 [label="squared_error = 0.0\nsamples = 1\nvalue = 53447.0"] ;
370 -> 371 ;
372 [label="Country/Region/State _Croatia <= 0.5\nsquared_error = 75547798.2\nsamples = 20\nvalue = 94664.6"] ;
370 -> 372 ;
373 [label="LOA <= 12.1\nsquared_error = 39503500.8\nsamples = 15\nvalue = 97147.3"] ;
372 -> 373 ;
374 [label="YearDis <= 13.5\nsquared_error = 31210084.7\nsamples = 12\nvalue = 95501.1"] ;
373 -> 374 ;
375 [label="LOA <= 11.8\nsquared_error = 16065631.2\nsamples = 4\nvalue = 91506.9"] ;
374 -> 375 ;
376 [label="squared_error = 26557472.0\nsamples = 2\nvalue = 94746.0"] ;
375 -> 376 ;
377 [label="Displacement <= 7689.0\nsquared_error = 2950830.2\nsamples = 2\nvalue = 89887.3"] ;
375 -> 377 ;
378 [label="squared_error = 0.0\nsamples = 1\nvalue = 87458.0"] ;
377 -> 378 ;
379 [label="squared_error = 0.0\nsamples = 1\nvalue = 91102.0"] ;
377 -> 379 ;
380 [label="LWL <= 10.7\nsquared_error = 14446915.8\nsamples = 8\nvalue = 99495.3"] ;
374 -> 380 ;
381 [label="GDP <= 26455.5\nsquared_error = 3822644.2\nsamples = 6\nvalue = 101199.3"] ;
380 -> 381 ;
382 [label="Country/Region/State _Portugal <= 0.5\nsquared_error = 1175383.5\nsamples = 4\nvalue = 99662.0"] ;
381 -> 382 ;
383 [label="Draft <= 1.8\nsquared_error = 41820.2\nsamples = 2\nvalue = 98795.5"] ;
382 -> 383 ;
384 [label="squared_error = 0.0\nsamples = 1\nvalue = 98591.0"] ;
383 -> 384 ;
385 [label="squared_error = 0.0\nsamples = 1\nvalue = 99000.0"] ;
383 -> 385 ;
386 [label="YearDis <= 14.5\nsquared_error = 807302.2\nsamples = 2\nvalue = 100528.5"] ;
382 -> 386 ;
387 [label="squared_error = 0.0\nsamples = 1\nvalue = 99630.0"] ;
386 -> 387 ;
388 [label="squared_error = 0.0\nsamples = 1\nvalue = 101427.0"] ;
386 -> 388 ;
389 [label="squared_error = 0.0\nsamples = 2\nvalue = 103249.0"] ;
381 -> 389 ;
390 [label="Country/Region/State _France <= 0.5\nsquared_error = 5902470.2\nsamples = 2\nvalue = 93531.5"] ;
380 -> 390 ;
391 [label="squared_error = 0.0\nsamples = 1\nvalue = 91102.0"] ;
390 -> 391 ;
392 [label="squared_error = 0.0\nsamples = 1\nvalue = 95961.0"] ;
390 -> 392 ;
393 [label="Draft <= 1.8\nsquared_error = 24485361.4\nsamples = 3\nvalue = 103073.4"] ;
373 -> 393 ;
394 [label="squared_error = 0.0\nsamples = 1\nvalue = 97054.0"] ;
393 -> 394 ;
395 [label="GDP <= 19342.0\nsquared_error = 549850.9\nsamples = 2\nvalue = 107086.3"] ;
393 -> 395 ;
396 [label="squared_error = 0.0\nsamples = 1\nvalue = 108135.0"] ;
395 -> 396 ;
397 [label="squared_error = 0.0\nsamples = 1\nvalue = 106562.0"] ;
395 -> 397 ;
398 [label="LOA <= 12.0\nsquared_error = 107185439.6\nsamples = 5\nvalue = 86507.3"] ;
372 -> 398 ;
399 [label="SA <= 70.3\nsquared_error = 49593207.2\nsamples = 4\nvalue = 89790.5"] ;
398 -> 399 ;
400 [label="squared_error = 0.0\nsamples = 1\nvalue = 87458.0"] ;
399 -> 400 ;
401 [label="YearDis <= 13.5\nsquared_error = 70309393.7\nsamples = 3\nvalue = 90956.8"] ;
399 -> 401 ;
402 [label="squared_error = 0.0\nsamples = 1\nvalue = 91102.0"] ;
401 -> 402 ;
403 [label="squared_error = 140576592.2\nsamples = 2\nvalue = 90811.5"] ;
401 -> 403 ;
404 [label="squared_error = 0.0\nsamples = 1\nvalue = 66808.0"] ;
398 -> 404 ;
405 [label="Draft <= 1.8\nsquared_error = 73507711.1\nsamples = 7\nvalue = 73323.8"] ;
369 -> 405 ;
406 [label="Beam <= 3.9\nsquared_error = 0.2\nsamples = 2\nvalue = 91101.5"] ;
405 -> 406 ;
407 [label="squared_error = 0.0\nsamples = 1\nvalue = 91101.0"] ;
406 -> 407 ;
408 [label="squared_error = 0.0\nsamples = 1\nvalue = 91102.0"] ;
406 -> 408 ;
409 [label="Displacement <= 7689.0\nsquared_error = 18962258.6\nsamples = 5\nvalue = 70091.5"] ;
405 -> 409 ;
410 [label="YearDis <= 14.0\nsquared_error = 18160382.2\nsamples = 2\nvalue = 74713.5"] ;
409 -> 410 ;
411 [label="squared_error = 0.0\nsamples = 1\nvalue = 70452.0"] ;
410 -> 411 ;
412 [label="squared_error = 0.0\nsamples = 1\nvalue = 78975.0"] ;
410 -> 412 ;
413 [label="YearDis <= 14.0\nsquared_error = 237853.1\nsamples = 3\nvalue = 67450.4"] ;
409 -> 413 ;
414 [label="squared_error = 56687.0\nsamples = 2\nvalue = 67731.4"] ;
413 -> 414 ;
415 [label="squared_error = 0.0\nsamples = 1\nvalue = 66748.0"] ;
413 -> 415 ;
416 [label="Country/Region/State _France <= 0.5\nsquared_error = 204258704.9\nsamples = 25\nvalue = 102147.2"] ;
368 -> 416 ;
417 [label="Country/Region/State _Estonia <= 0.5\nsquared_error = 154186575.3\nsamples = 24\nvalue = 100901.0"] ;
416 -> 417 ;
418 [label="Displacement <= 7265.0\nsquared_error = 139453631.7\nsamples = 23\nvalue = 99728.0"] ;
417 -> 418 ;
419 [label="Country/Region/State _Greece <= 0.5\nsquared_error = 64600555.6\nsamples = 2\nvalue = 114601.7"] ;
418 -> 419 ;
420 [label="squared_error = 0.0\nsamples = 1\nvalue = 103235.0"] ;
419 -> 420 ;
421 [label="squared_error = 0.0\nsamples = 1\nvalue = 120285.0"] ;
419 -> 421 ;
422 [label="Country/Region/State _Croatia <= 0.5\nsquared_error = 122604083.7\nsamples = 21\nvalue = 98240.6"] ;
418 -> 422 ;
423 [label="Draft <= 2.0\nsquared_error = 108076706.6\nsamples = 20\nvalue = 99031.3"] ;
422 -> 423 ;
424 [label="Gini <= 34.2\nsquared_error = 144880176.8\nsamples = 3\nvalue = 106589.5"] ;
423 -> 424 ;
425 [label="GDP <= 31627.0\nsquared_error = 9223369.0\nsamples = 2\nvalue = 118433.0"] ;
424 -> 425 ;
426 [label="squared_error = 0.0\nsamples = 1\nvalue = 121470.0"] ;
425 -> 426 ;
427 [label="squared_error = 0.0\nsamples = 1\nvalue = 115396.0"] ;
425 -> 427 ;
428 [label="squared_error = 0.0\nsamples = 1\nvalue = 94746.0"] ;
424 -> 428 ;
429 [label="SA <= 87.7\nsquared_error = 91585523.0\nsamples = 17\nvalue = 97822.0"] ;
423 -> 429 ;
430 [label="Draft <= 2.1\nsquared_error = 87994154.8\nsamples = 15\nvalue = 96903.0"] ;
429 -> 430 ;
431 [label="SA <= 82.7\nsquared_error = 72270636.7\nsamples = 13\nvalue = 98324.2"] ;
430 -> 431 ;
432 [label="Country/Region/State _Italy <= 0.5\nsquared_error = 85231598.8\nsamples = 9\nvalue = 100046.6"] ;
431 -> 432 ;
433 [label="YearDis <= 14.5\nsquared_error = 38097443.8\nsamples = 5\nvalue = 101236.8"] ;
432 -> 433 ;
434 [label="Displacement <= 8515.0\nsquared_error = 21736467.2\nsamples = 4\nvalue = 97801.2"] ;
433 -> 434 ;
435 [label="squared_error = 24931800.0\nsamples = 3\nvalue = 96795.0"] ;
434 -> 435 ;
436 [label="squared_error = 0.0\nsamples = 1\nvalue = 100820.0"] ;
434 -> 436 ;
437 [label="squared_error = 0.0\nsamples = 1\nvalue = 108108.0"] ;
433 -> 437 ;
438 [label="YearDis <= 14.0\nsquared_error = 118722988.8\nsamples = 4\nvalue = 99154.0"] ;
432 -> 438 ;
439 [label="squared_error = 3232536.0\nsamples = 2\nvalue = 101073.0"] ;
438 -> 439 ;
440 [label="squared_error = 294840138.9\nsamples = 2\nvalue = 95955.7"] ;
438 -> 440 ;
441 [label="GDP <= 31627.0\nsquared_error = 28547659.3\nsamples = 4\nvalue = 94879.3"] ;
431 -> 441 ;
442 [label="Country/Region/State _Greece <= 0.5\nsquared_error = 864301.7\nsamples = 2\nvalue = 91638.8"] ;
441 -> 442 ;
443 [label="squared_error = 0.0\nsamples = 1\nvalue = 91102.0"] ;
442 -> 443 ;
444 [label="squared_error = 0.0\nsamples = 1\nvalue = 93249.0"] ;
442 -> 444 ;
445 [label="YearDis <= 13.5\nsquared_error = 32788802.0\nsamples = 2\nvalue = 99200.0"] ;
441 -> 445 ;
446 [label="squared_error = 0.0\nsamples = 1\nvalue = 103249.0"] ;
445 -> 446 ;
447 [label="squared_error = 0.0\nsamples = 1\nvalue = 91102.0"] ;
445 -> 447 ;
448 [label="YearDis <= 14.5\nsquared_error = 9217296.0\nsamples = 2\nvalue = 81981.0"] ;
430 -> 448 ;
449 [label="squared_error = 0.0\nsamples = 1\nvalue = 78945.0"] ;
448 -> 449 ;
450 [label="squared_error = 0.0\nsamples = 1\nvalue = 85017.0"] ;
448 -> 450 ;
451 [label="LOA <= 12.7\nsquared_error = 11492100.0\nsamples = 2\nvalue = 108390.0"] ;
429 -> 451 ;
452 [label="squared_error = 0.0\nsamples = 1\nvalue = 105000.0"] ;
451 -> 452 ;
453 [label="squared_error = 0.0\nsamples = 1\nvalue = 111780.0"] ;
451 -> 453 ;
454 [label="squared_error = 0.0\nsamples = 1\nvalue = 75311.0"] ;
422 -> 454 ;
455 [label="squared_error = 0.0\nsamples = 1\nvalue = 120255.0"] ;
417 -> 455 ;
456 [label="squared_error = 0.0\nsamples = 1\nvalue = 145764.0"] ;
416 -> 456 ;
457 [label="Length (ft) <= 39.5\nsquared_error = 1846633349.4\nsamples = 3\nvalue = 134683.8"] ;
367 -> 457 ;
458 [label="squared_error = 0.0\nsamples = 1\nvalue = 186497.0"] ;
457 -> 458 ;
459 [label="SA <= 73.0\nsquared_error = 94824810.9\nsamples = 2\nvalue = 100141.7"] ;
457 -> 459 ;
460 [label="squared_error = 0.0\nsamples = 1\nvalue = 113913.0"] ;
459 -> 460 ;
461 [label="squared_error = 0.0\nsamples = 1\nvalue = 93256.0"] ;
459 -> 461 ;
462 [label="Draft <= 2.0\nsquared_error = 1014749516.0\nsamples = 48\nvalue = 135753.4"] ;
260 -> 462 ;
463 [label="LOA <= 12.1\nsquared_error = 610718090.4\nsamples = 41\nvalue = 125571.1"] ;
462 -> 463 ;
464 [label="Country/Region/State _California <= 0.5\nsquared_error = 246202370.8\nsamples = 21\nvalue = 107866.2"] ;
463 -> 464 ;
465 [label="SA <= 60.8\nsquared_error = 164113448.4\nsamples = 17\nvalue = 104290.7"] ;
464 -> 465 ;
466 [label="Country/Region/State _Florida <= 0.5\nsquared_error = 80442961.0\nsamples = 2\nvalue = 81869.0"] ;
465 -> 466 ;
467 [label="squared_error = 0.0\nsamples = 1\nvalue = 90838.0"] ;
466 -> 467 ;
468 [label="squared_error = 0.0\nsamples = 1\nvalue = 72900.0"] ;
466 -> 468 ;
469 [label="Length (ft) <= 39.5\nsquared_error = 119642651.8\nsamples = 15\nvalue = 106426.1"] ;
465 -> 469 ;
470 [label="LWL <= 10.7\nsquared_error = 107707406.0\nsamples = 14\nvalue = 105502.4"] ;
469 -> 470 ;
471 [label="Country/Region/State _Florida <= 0.5\nsquared_error = 102457227.8\nsamples = 13\nvalue = 106814.6"] ;
470 -> 471 ;
472 [label="Length (ft) <= 38.5\nsquared_error = 66459988.9\nsamples = 12\nvalue = 105286.6"] ;
471 -> 472 ;
473 [label="Gini <= 37.4\nsquared_error = 52999156.9\nsamples = 11\nvalue = 106304.6"] ;
472 -> 473 ;
474 [label="squared_error = 0.0\nsamples = 1\nvalue = 95961.0"] ;
473 -> 474 ;
475 [label="Country/Region/State _Connecticut <= 0.5\nsquared_error = 43102826.6\nsamples = 10\nvalue = 107782.2"] ;
473 -> 475 ;
476 [label="YearDis <= 13.5\nsquared_error = 32883576.4\nsamples = 9\nvalue = 108765.5"] ;
475 -> 476 ;
477 [label="YearDis <= 12.5\nsquared_error = 10067500.0\nsamples = 5\nvalue = 105300.0"] ;
476 -> 477 ;
478 [label="GDP <= 74266.9\nsquared_error = 5025714.3\nsamples = 4\nvalue = 106200.0"] ;
477 -> 478 ;
479 [label="Gini <= 47.3\nsquared_error = 40000.0\nsamples = 2\nvalue = 109700.0"] ;
478 -> 479 ;
480 [label="squared_error = 0.0\nsamples = 1\nvalue = 109500.0"] ;
479 -> 480 ;
481 [label="squared_error = 0.0\nsamples = 1\nvalue = 109900.0"] ;
479 -> 481 ;
482 [label="Gini <= 49.5\nsquared_error = 160000.0\nsamples = 2\nvalue = 104800.0"] ;
478 -> 482 ;
483 [label="squared_error = 0.0\nsamples = 1\nvalue = 105000.0"] ;
482 -> 483 ;
484 [label="squared_error = 0.0\nsamples = 1\nvalue = 104000.0"] ;
482 -> 484 ;
485 [label="squared_error = 0.0\nsamples = 1\nvalue = 99000.0"] ;
477 -> 485 ;
486 [label="Gini <= 45.7\nsquared_error = 19430096.2\nsamples = 4\nvalue = 114310.2"] ;
476 -> 486 ;
487 [label="squared_error = 0.0\nsamples = 1\nvalue = 109400.0"] ;
486 -> 487 ;
488 [label="Gini <= 49.1\nsquared_error = 16753225.2\nsamples = 3\nvalue = 115537.8"] ;
486 -> 488 ;
489 [label="squared_error = 0.0\nsamples = 1\nvalue = 119000.0"] ;
488 -> 489 ;
490 [label="squared_error = 17010000.2\nsamples = 2\nvalue = 114383.7"] ;
488 -> 490 ;
491 [label="squared_error = 0.0\nsamples = 1\nvalue = 95000.0"] ;
475 -> 491 ;
492 [label="squared_error = 0.0\nsamples = 1\nvalue = 89000.0"] ;
472 -> 492 ;
493 [label="squared_error = 0.0\nsamples = 1\nvalue = 132790.0"] ;
471 -> 493 ;
494 [label="squared_error = 0.0\nsamples = 1\nvalue = 93693.0"] ;
470 -> 494 ;
495 [label="squared_error = 0.0\nsamples = 1\nvalue = 124900.0"] ;
469 -> 495 ;
496 [label="YearDis <= 12.5\nsquared_error = 222041875.0\nsamples = 4\nvalue = 128425.0"] ;
464 -> 496 ;
497 [label="YearDis <= 11.5\nsquared_error = 49000000.0\nsamples = 2\nvalue = 142000.0"] ;
496 -> 497 ;
498 [label="squared_error = 0.0\nsamples = 1\nvalue = 135000.0"] ;
497 -> 498 ;
499 [label="squared_error = 0.0\nsamples = 1\nvalue = 149000.0"] ;
497 -> 499 ;
500 [label="Displacement <= 8106.5\nsquared_error = 26522500.0\nsamples = 2\nvalue = 114850.0"] ;
496 -> 500 ;
501 [label="squared_error = 0.0\nsamples = 1\nvalue = 120000.0"] ;
500 -> 501 ;
502 [label="squared_error = 0.0\nsamples = 1\nvalue = 109700.0"] ;
500 -> 502 ;
503 [label="LOA <= 12.2\nsquared_error = 325693424.2\nsamples = 20\nvalue = 143957.0"] ;
463 -> 503 ;
504 [label="GDP <= 49830.1\nsquared_error = 140945785.4\nsamples = 9\nvalue = 158559.8"] ;
503 -> 504 ;
505 [label="squared_error = 0.0\nsamples = 1\nvalue = 129900.0"] ;
504 -> 505 ;
506 [label="Country/Region/State _Michigan <= 0.5\nsquared_error = 72299739.1\nsamples = 8\nvalue = 161165.2"] ;
504 -> 506 ;
507 [label="Gini <= 46.8\nsquared_error = 25487231.6\nsamples = 7\nvalue = 163381.7"] ;
506 -> 507 ;
508 [label="YearDis <= 10.0\nsquared_error = 202500.0\nsamples = 3\nvalue = 159450.0"] ;
507 -> 508 ;
509 [label="squared_error = 0.0\nsamples = 1\nvalue = 159900.0"] ;
508 -> 509 ;
510 [label="squared_error = 0.0\nsamples = 2\nvalue = 159000.0"] ;
508 -> 510 ;
511 [label="YearDis <= 11.5\nsquared_error = 25167869.5\nsamples = 4\nvalue = 166002.8"] ;
507 -> 511 ;
512 [label="Gini <= 49.6\nsquared_error = 6038768.6\nsamples = 3\nvalue = 168009.6"] ;
511 -> 512 ;
513 [label="squared_error = 0.0\nsamples = 1\nvalue = 165000.0"] ;
512 -> 513 ;
514 [label="YearDis <= 9.5\nsquared_error = 512.0\nsamples = 2\nvalue = 170016.0"] ;
512 -> 514 ;
515 [label="squared_error = 0.0\nsamples = 1\nvalue = 170048.0"] ;
514 -> 515 ;
516 [label="squared_error = 0.0\nsamples = 1\nvalue = 170000.0"] ;
514 -> 516 ;
517 [label="squared_error = 0.0\nsamples = 1\nvalue = 155969.0"] ;
511 -> 517 ;
518 [label="squared_error = 0.0\nsamples = 1\nvalue = 139000.0"] ;
506 -> 518 ;
519 [label="YearDis <= 13.0\nsquared_error = 144603000.2\nsamples = 11\nvalue = 131440.3"] ;
503 -> 519 ;
520 [label="Gini <= 30.3\nsquared_error = 109527007.0\nsamples = 3\nvalue = 139202.8"] ;
519 -> 520 ;
521 [label="squared_error = 0.0\nsamples = 1\nvalue = 151716.0"] ;
520 -> 521 ;
522 [label="LOA <= 12.6\nsquared_error = 8567040.2\nsamples = 2\nvalue = 130860.7"] ;
520 -> 522 ;
523 [label="squared_error = 0.0\nsamples = 1\nvalue = 135000.0"] ;
522 -> 523 ;
524 [label="squared_error = 0.0\nsamples = 1\nvalue = 128791.0"] ;
522 -> 524 ;
525 [label="Country/Region/State _North Carolina <= 0.5\nsquared_error = 112016034.0\nsamples = 8\nvalue = 127127.8"] ;
519 -> 525 ;
526 [label="Gini <= 37.6\nsquared_error = 55632929.7\nsamples = 7\nvalue = 124331.2"] ;
525 -> 526 ;
527 [label="squared_error = 0.0\nsamples = 1\nvalue = 115275.0"] ;
526 -> 527 ;
528 [label="YearDis <= 14.5\nsquared_error = 37725833.3\nsamples = 6\nvalue = 127350.0"] ;
526 -> 528 ;
529 [label="Draft <= 2.0\nsquared_error = 20702500.0\nsamples = 2\nvalue = 134450.0"] ;
528 -> 529 ;
530 [label="squared_error = 0.0\nsamples = 1\nvalue = 129900.0"] ;
529 -> 530 ;
531 [label="squared_error = 0.0\nsamples = 1\nvalue = 139000.0"] ;
529 -> 531 ;
532 [label="Country/Region/State _Illinois <= 0.5\nsquared_error = 8430000.0\nsamples = 4\nvalue = 123800.0"] ;
528 -> 532 ;
533 [label="LWL <= 10.8\nsquared_error = 568888.9\nsamples = 3\nvalue = 125433.3"] ;
532 -> 533 ;
534 [label="GDP <= 70653.1\nsquared_error = 640000.0\nsamples = 2\nvalue = 125700.0"] ;
533 -> 534 ;
535 [label="squared_error = 0.0\nsamples = 1\nvalue = 126500.0"] ;
534 -> 535 ;
536 [label="squared_error = 0.0\nsamples = 1\nvalue = 124900.0"] ;
534 -> 536 ;
537 [label="squared_error = 0.0\nsamples = 1\nvalue = 124900.0"] ;
533 -> 537 ;
538 [label="squared_error = 0.0\nsamples = 1\nvalue = 118900.0"] ;
532 -> 538 ;
539 [label="squared_error = 0.0\nsamples = 1\nvalue = 149500.0"] ;
525 -> 539 ;
540 [label="GDP <= 64715.9\nsquared_error = 318814744.8\nsamples = 7\nvalue = 180725.5"] ;
462 -> 540 ;
541 [label="Beam <= 4.0\nsquared_error = 92436904.1\nsamples = 4\nvalue = 164286.8"] ;
540 -> 541 ;
542 [label="LWL <= 10.9\nsquared_error = 21648619.4\nsamples = 3\nvalue = 168144.2"] ;
541 -> 542 ;
543 [label="SA <= 69.4\nsquared_error = 2489763.0\nsamples = 2\nvalue = 170361.0"] ;
542 -> 543 ;
544 [label="squared_error = 0.0\nsamples = 1\nvalue = 173094.0"] ;
543 -> 544 ;
545 [label="squared_error = 0.0\nsamples = 1\nvalue = 169450.0"] ;
543 -> 545 ;
546 [label="squared_error = 0.0\nsamples = 1\nvalue = 159277.0"] ;
542 -> 546 ;
547 [label="squared_error = 0.0\nsamples = 1\nvalue = 145000.0"] ;
541 -> 547 ;
548 [label="Beam <= 3.9\nsquared_error = 4733061.8\nsamples = 3\nvalue = 197164.2"] ;
540 -> 548 ;
549 [label="squared_error = 0.0\nsamples = 1\nvalue = 194995.0"] ;
548 -> 549 ;
550 [label="Gini <= 49.7\nsquared_error = 55555.6\nsamples = 2\nvalue = 199333.3"] ;
548 -> 550 ;
551 [label="squared_error = 0.0\nsamples = 1\nvalue = 199000.0"] ;
550 -> 551 ;
552 [label="squared_error = 0.0\nsamples = 1\nvalue = 199500.0"] ;
550 -> 552 ;
553 [label="LWL <= 11.4\nsquared_error = 8133758581.6\nsamples = 15\nvalue = 180211.2"] ;
259 -> 553 ;
554 [label="GDP <= 37083.5\nsquared_error = 1201283512.5\nsamples = 3\nvalue = 365129.0"] ;
553 -> 554 ;
555 [label="squared_error = 0.0\nsamples = 1\nvalue = 425144.0"] ;
554 -> 555 ;
556 [label="SA <= 74.4\nsquared_error = 911250.0\nsamples = 2\nvalue = 345124.0"] ;
554 -> 556 ;
557 [label="squared_error = 0.0\nsamples = 1\nvalue = 346474.0"] ;
556 -> 557 ;
558 [label="squared_error = 0.0\nsamples = 1\nvalue = 344449.0"] ;
556 -> 558 ;
559 [label="GDP <= 30389.5\nsquared_error = 878813108.0\nsamples = 12\nvalue = 141281.1"] ;
553 -> 559 ;
560 [label="Country/Region/State _Portugal <= 0.5\nsquared_error = 820514015.1\nsamples = 6\nvalue = 122125.8"] ;
559 -> 560 ;
561 [label="SA <= 101.5\nsquared_error = 170310064.2\nsamples = 4\nvalue = 106871.5"] ;
560 -> 561 ;
562 [label="squared_error = 0.0\nsamples = 1\nvalue = 103249.0"] ;
561 -> 562 ;
563 [label="Country/Region/State _Greece <= 0.5\nsquared_error = 201222675.6\nsamples = 3\nvalue = 107596.0"] ;
561 -> 563 ;
564 [label="squared_error = 0.0\nsamples = 1\nvalue = 108108.0"] ;
563 -> 564 ;
565 [label="squared_error = 502073649.0\nsamples = 2\nvalue = 106828.0"] ;
563 -> 565 ;
566 [label="YearDis <= 11.5\nsquared_error = 724763973.6\nsamples = 2\nvalue = 152634.3"] ;
560 -> 566 ;
567 [label="squared_error = 0.0\nsamples = 1\nvalue = 190707.0"] ;
566 -> 567 ;
568 [label="squared_error = 0.0\nsamples = 1\nvalue = 133598.0"] ;
566 -> 568 ;
569 [label="YearDis <= 8.5\nsquared_error = 303837855.1\nsamples = 6\nvalue = 158520.9"] ;
559 -> 569 ;
570 [label="Draft <= 2.2\nsquared_error = 108508790.4\nsamples = 3\nvalue = 172203.0"] ;
569 -> 570 ;
571 [label="squared_error = 0.0\nsamples = 1\nvalue = 164026.0"] ;
570 -> 571 ;
572 [label="Gini <= 41.5\nsquared_error = 20534492.2\nsamples = 2\nvalue = 184468.5"] ;
570 -> 572 ;
573 [label="squared_error = 0.0\nsamples = 1\nvalue = 179937.0"] ;
572 -> 573 ;
574 [label="squared_error = 0.0\nsamples = 1\nvalue = 189000.0"] ;
572 -> 574 ;
575 [label="Displacement <= 10887.5\nsquared_error = 124767199.0\nsamples = 3\nvalue = 144838.8"] ;
569 -> 575 ;
576 [label="GDP <= 41620.5\nsquared_error = 41415660.2\nsamples = 2\nvalue = 140052.5"] ;
575 -> 576 ;
577 [label="squared_error = 0.0\nsamples = 1\nvalue = 133617.0"] ;
576 -> 577 ;
578 [label="squared_error = 0.0\nsamples = 1\nvalue = 146488.0"] ;
576 -> 578 ;
579 [label="squared_error = 0.0\nsamples = 1\nvalue = 163984.0"] ;
575 -> 579 ;
580 [label="YearDis <= 9.5\nsquared_error = 11451708334.4\nsamples = 797\nvalue = 216802.8"] ;
2 -> 580 ;
581 [label="Draft <= 2.3\nsquared_error = 14503778973.7\nsamples = 346\nvalue = 260872.8"] ;
580 -> 581 ;
582 [label="Draft <= 1.2\nsquared_error = 11518665224.8\nsamples = 308\nvalue = 242678.0"] ;
581 -> 582 ;
583 [label="squared_error = 0.0\nsamples = 1\nvalue = 998000.0"] ;
582 -> 583 ;
584 [label="Country/Region/State _Maine <= 0.5\nsquared_error = 9039585965.5\nsamples = 307\nvalue = 239343.3"] ;
582 -> 584 ;
585 [label="YearDis <= 4.5\nsquared_error = 7704401806.6\nsamples = 306\nvalue = 236879.1"] ;
584 -> 585 ;
586 [label="GDP <= 49197.0\nsquared_error = 11258115392.1\nsamples = 116\nvalue = 280868.3"] ;
585 -> 586 ;
587 [label="Length (ft) <= 49.5\nsquared_error = 10879955364.4\nsamples = 100\nvalue = 264709.4"] ;
586 -> 587 ;
588 [label="YearDis <= 1.5\nsquared_error = 4269362815.9\nsamples = 94\nvalue = 256014.2"] ;
587 -> 588 ;
589 [label="Draft <= 2.2\nsquared_error = 4463178683.5\nsamples = 20\nvalue = 312773.4"] ;
588 -> 589 ;
590 [label="Country/Region/State _Spain <= 0.5\nsquared_error = 1606900181.1\nsamples = 19\nvalue = 296662.9"] ;
589 -> 590 ;
591 [label="Beam <= 4.4\nsquared_error = 1222498358.0\nsamples = 18\nvalue = 292203.2"] ;
590 -> 591 ;
592 [label="Beam <= 4.3\nsquared_error = 1313906088.6\nsamples = 14\nvalue = 282890.9"] ;
591 -> 592 ;
593 [label="GDP <= 37083.5\nsquared_error = 1149667565.4\nsamples = 12\nvalue = 289205.6"] ;
592 -> 593 ;
594 [label="Length (ft) <= 45.0\nsquared_error = 606194375.4\nsamples = 8\nvalue = 269523.9"] ;
593 -> 594 ;
595 [label="LOA <= 12.6\nsquared_error = 102660887.5\nsamples = 5\nvalue = 254473.2"] ;
594 -> 595 ;
596 [label="squared_error = 0.0\nsamples = 1\nvalue = 267233.0"] ;
595 -> 596 ;
597 [label="GDP <= 24502.0\nsquared_error = 84117861.8\nsamples = 4\nvalue = 251921.2"] ;
595 -> 597 ;
598 [label="SA <= 85.1\nsquared_error = 62070762.2\nsamples = 2\nvalue = 247173.5"] ;
597 -> 598 ;
599 [label="squared_error = 0.0\nsamples = 1\nvalue = 255052.0"] ;
598 -> 599 ;
600 [label="squared_error = 0.0\nsamples = 1\nvalue = 239295.0"] ;
598 -> 600 ;
601 [label="LWL <= 11.7\nsquared_error = 73770755.6\nsamples = 2\nvalue = 255086.3"] ;
597 -> 601 ;
602 [label="squared_error = 0.0\nsamples = 1\nvalue = 267233.0"] ;
601 -> 602 ;
603 [label="squared_error = 0.0\nsamples = 1\nvalue = 249013.0"] ;
601 -> 603 ;
604 [label="Draft <= 1.8\nsquared_error = 254115914.9\nsamples = 3\nvalue = 299625.3"] ;
594 -> 604 ;
605 [label="squared_error = 0.0\nsamples = 1\nvalue = 321895.0"] ;
604 -> 605 ;
606 [label="Beam <= 4.1\nsquared_error = 9220332.2\nsamples = 2\nvalue = 288490.5"] ;
604 -> 606 ;
607 [label="squared_error = 0.0\nsamples = 1\nvalue = 291527.0"] ;
606 -> 607 ;
608 [label="squared_error = 0.0\nsamples = 1\nvalue = 285454.0"] ;
606 -> 608 ;
609 [label="Displacement <= 10600.0\nsquared_error = 175581424.2\nsamples = 4\nvalue = 324632.6"] ;
593 -> 609 ;
610 [label="Length (ft) <= 42.5\nsquared_error = 24392784.2\nsamples = 2\nvalue = 333693.7"] ;
609 -> 610 ;
611 [label="squared_error = 0.0\nsamples = 1\nvalue = 326709.0"] ;
610 -> 611 ;
612 [label="squared_error = 0.0\nsamples = 1\nvalue = 337186.0"] ;
610 -> 612 ;
613 [label="squared_error = 94478400.0\nsamples = 2\nvalue = 311041.0"] ;
609 -> 613 ;
614 [label="squared_error = 230553856.0\nsamples = 2\nvalue = 238688.0"] ;
592 -> 614 ;
615 [label="SA <= 95.2\nsquared_error = 130824728.7\nsamples = 4\nvalue = 317036.0"] ;
591 -> 615 ;
616 [label="squared_error = 0.0\nsamples = 1\nvalue = 301245.0"] ;
615 -> 616 ;
617 [label="Gini <= 37.7\nsquared_error = 9220332.2\nsamples = 3\nvalue = 324931.5"] ;
615 -> 617 ;
618 [label="squared_error = 0.0\nsamples = 2\nvalue = 321895.0"] ;
617 -> 618 ;
619 [label="squared_error = 0.0\nsamples = 1\nvalue = 327968.0"] ;
617 -> 619 ;
620 [label="squared_error = 0.0\nsamples = 1\nvalue = 394776.0"] ;
590 -> 620 ;
621 [label="squared_error = 0.0\nsamples = 1\nvalue = 498045.0"] ;
589 -> 621 ;
622 [label="Draft <= 2.2\nsquared_error = 3188428408.1\nsamples = 74\nvalue = 241534.8"] ;
588 -> 622 ;
623 [label="GDP <= 37083.5\nsquared_error = 2310860833.3\nsamples = 50\nvalue = 229693.5"] ;
622 -> 623 ;
624 [label="LWL <= 12.8\nsquared_error = 1567439779.3\nsamples = 36\nvalue = 217787.9"] ;
623 -> 624 ;
625 [label="GDP <= 24362.5\nsquared_error = 1180865630.2\nsamples = 25\nvalue = 203200.5"] ;
624 -> 625 ;
626 [label="LOA <= 13.8\nsquared_error = 533055119.1\nsamples = 19\nvalue = 190861.1"] ;
625 -> 626 ;
627 [label="YearDis <= 3.0\nsquared_error = 187293840.0\nsamples = 7\nvalue = 179736.4"] ;
626 -> 627 ;
628 [label="Draft <= 2.1\nsquared_error = 66786421.6\nsamples = 4\nvalue = 173514.5"] ;
627 -> 628 ;
629 [label="Displacement <= 9005.0\nsquared_error = 1784896.0\nsamples = 2\nvalue = 165077.0"] ;
628 -> 629 ;
630 [label="squared_error = 0.0\nsamples = 1\nvalue = 166413.0"] ;
629 -> 630 ;
631 [label="squared_error = 0.0\nsamples = 1\nvalue = 163741.0"] ;
629 -> 631 ;
632 [label="squared_error = 45893629.7\nsamples = 2\nvalue = 177733.2"] ;
628 -> 632 ;
633 [label="Length (ft) <= 43.5\nsquared_error = 196033120.9\nsamples = 3\nvalue = 192180.3"] ;
627 -> 633 ;
634 [label="squared_error = 0.0\nsamples = 1\nvalue = 199889.0"] ;
633 -> 634 ;
635 [label="squared_error = 249482025.0\nsamples = 2\nvalue = 188326.0"] ;
633 -> 635 ;
636 [label="YearDis <= 2.5\nsquared_error = 621704599.7\nsamples = 12\nvalue = 197535.9"] ;
626 -> 636 ;
637 [label="squared_error = 0.0\nsamples = 1\nvalue = 255086.0"] ;
636 -> 637 ;
638 [label="YearDis <= 3.5\nsquared_error = 412641317.6\nsamples = 11\nvalue = 193425.1"] ;
636 -> 638 ;
639 [label="LWL <= 12.1\nsquared_error = 252200448.7\nsamples = 6\nvalue = 199230.4"] ;
638 -> 639 ;
640 [label="squared_error = 0.0\nsamples = 1\nvalue = 194108.0"] ;
639 -> 640 ;
641 [label="GDP <= 17237.5\nsquared_error = 324605609.1\nsamples = 5\nvalue = 200937.8"] ;
639 -> 641 ;
642 [label="squared_error = 0.0\nsamples = 1\nvalue = 210142.0"] ;
641 -> 642 ;
643 [label="squared_error = 423370900.7\nsamples = 4\nvalue = 196335.8"] ;
641 -> 643 ;
644 [label="Country/Region/State _Turkey <= 0.5\nsquared_error = 521715790.8\nsamples = 5\nvalue = 185684.8"] ;
638 -> 644 ;
645 [label="Gini <= 34.0\nsquared_error = 384182365.4\nsamples = 4\nvalue = 179335.6"] ;
644 -> 645 ;
646 [label="LOA <= 14.1\nsquared_error = 305061070.8\nsamples = 3\nvalue = 185254.5"] ;
645 -> 646 ;
647 [label="squared_error = 73770755.6\nsamples = 2\nvalue = 176130.7"] ;
646 -> 647 ;
648 [label="squared_error = 0.0\nsamples = 1\nvalue = 212626.0"] ;
646 -> 648 ;
649 [label="squared_error = 0.0\nsamples = 1\nvalue = 155660.0"] ;
645 -> 649 ;
650 [label="squared_error = 0.0\nsamples = 1\nvalue = 217431.0"] ;
644 -> 650 ;
651 [label="YearDis <= 3.5\nsquared_error = 1090027709.6\nsamples = 6\nvalue = 245507.3"] ;
625 -> 651 ;
652 [label="LOA <= 13.3\nsquared_error = 776123584.6\nsamples = 4\nvalue = 260139.2"] ;
651 -> 652 ;
653 [label="LWL <= 11.1\nsquared_error = 39670293.6\nsamples = 2\nvalue = 273711.3"] ;
652 -> 653 ;
654 [label="squared_error = 0.0\nsamples = 1\nvalue = 264804.0"] ;
653 -> 654 ;
655 [label="squared_error = 0.0\nsamples = 1\nvalue = 278165.0"] ;
653 -> 655 ;
656 [label="squared_error = 1190043009.0\nsamples = 2\nvalue = 239781.0"] ;
652 -> 656 ;
657 [label="Draft <= 1.9\nsquared_error = 1475010.2\nsamples = 2\nvalue = 208927.5"] ;
651 -> 657 ;
658 [label="squared_error = 0.0\nsamples = 1\nvalue = 207713.0"] ;
657 -> 658 ;
659 [label="squared_error = 0.0\nsamples = 1\nvalue = 210142.0"] ;
657 -> 659 ;
660 [label="GDP <= 21237.0\nsquared_error = 1325573740.2\nsamples = 11\nvalue = 240398.3"] ;
624 -> 660 ;
661 [label="SA <= 95.9\nsquared_error = 1151031114.2\nsamples = 6\nvalue = 262266.7"] ;
660 -> 661 ;
662 [label="squared_error = 0.0\nsamples = 1\nvalue = 334126.0"] ;
661 -> 662 ;
663 [label="YearDis <= 3.5\nsquared_error = 641422349.6\nsamples = 5\nvalue = 254282.3"] ;
661 -> 663 ;
664 [label="squared_error = 358722675.0\nsamples = 2\nvalue = 274591.0"] ;
663 -> 664 ;
665 [label="Gini <= 34.0\nsquared_error = 273665693.0\nsamples = 3\nvalue = 238035.4"] ;
663 -> 665 ;
666 [label="Draft <= 2.0\nsquared_error = 27510894.2\nsamples = 2\nvalue = 245967.2"] ;
665 -> 666 ;
667 [label="squared_error = 0.0\nsamples = 1\nvalue = 242939.0"] ;
666 -> 667 ;
668 [label="squared_error = 0.0\nsamples = 1\nvalue = 255052.0"] ;
666 -> 668 ;
669 [label="squared_error = 0.0\nsamples = 1\nvalue = 206308.0"] ;
665 -> 669 ;
670 [label="GDP <= 31627.0\nsquared_error = 543662529.1\nsamples = 5\nvalue = 218529.9"] ;
660 -> 670 ;
671 [label="GDP <= 26455.5\nsquared_error = 26334443.6\nsamples = 2\nvalue = 185879.7"] ;
670 -> 671 ;
672 [label="squared_error = 0.0\nsamples = 1\nvalue = 193137.0"] ;
671 -> 672 ;
673 [label="squared_error = 0.0\nsamples = 1\nvalue = 182251.0"] ;
671 -> 673 ;
674 [label="Beam <= 4.5\nsquared_error = 112698400.4\nsamples = 3\nvalue = 232522.9"] ;
670 -> 674 ;
675 [label="YearDis <= 3.5\nsquared_error = 32788802.0\nsamples = 2\nvalue = 228768.0"] ;
674 -> 675 ;
676 [label="squared_error = 0.0\nsamples = 1\nvalue = 236866.0"] ;
675 -> 676 ;
677 [label="squared_error = 0.0\nsamples = 1\nvalue = 224719.0"] ;
675 -> 677 ;
678 [label="squared_error = 0.0\nsamples = 1\nvalue = 255052.0"] ;
674 -> 678 ;
679 [label="Displacement <= 9820.0\nsquared_error = 2904635794.0\nsamples = 14\nvalue = 261650.6"] ;
623 -> 679 ;
680 [label="Country/Region/State _Martinique <= 0.5\nsquared_error = 1551962195.2\nsamples = 8\nvalue = 232466.0"] ;
679 -> 680 ;
681 [label="SA <= 96.4\nsquared_error = 737051076.0\nsamples = 7\nvalue = 222529.4"] ;
680 -> 681 ;
682 [label="LWL <= 11.2\nsquared_error = 261621323.0\nsamples = 6\nvalue = 230470.6"] ;
681 -> 682 ;
683 [label="GDP <= 41620.5\nsquared_error = 76851870.2\nsamples = 3\nvalue = 218618.5"] ;
682 -> 683 ;
684 [label="YearDis <= 3.0\nsquared_error = 29877156.0\nsamples = 2\nvalue = 210750.0"] ;
683 -> 684 ;
685 [label="squared_error = 0.0\nsamples = 1\nvalue = 216216.0"] ;
684 -> 685 ;
686 [label="squared_error = 0.0\nsamples = 1\nvalue = 205284.0"] ;
684 -> 686 ;
687 [label="squared_error = 0.0\nsamples = 1\nvalue = 226487.0"] ;
683 -> 687 ;
688 [label="Gini <= 33.6\nsquared_error = 165445041.7\nsamples = 3\nvalue = 242322.8"] ;
682 -> 688 ;
689 [label="SA <= 91.9\nsquared_error = 63521477.6\nsamples = 2\nvalue = 236056.3"] ;
688 -> 689 ;
690 [label="squared_error = 0.0\nsamples = 1\nvalue = 224785.0"] ;
689 -> 690 ;
691 [label="squared_error = 0.0\nsamples = 1\nvalue = 241692.0"] ;
689 -> 691 ;
692 [label="squared_error = 0.0\nsamples = 1\nvalue = 261122.0"] ;
688 -> 692 ;
693 [label="squared_error = 0.0\nsamples = 1\nvalue = 159000.0"] ;
681 -> 693 ;
694 [label="squared_error = 0.0\nsamples = 1\nvalue = 321895.0"] ;
680 -> 694 ;
695 [label="LWL <= 12.0\nsquared_error = 2409698642.3\nsamples = 6\nvalue = 294077.9"] ;
679 -> 695 ;
696 [label="squared_error = 0.0\nsamples = 1\nvalue = 412941.0"] ;
695 -> 696 ;
697 [label="Country/Region/State _British Virgin Islands <= 0.5\nsquared_error = 724099212.5\nsamples = 5\nvalue = 279220.0"] ;
695 -> 697 ;
698 [label="YearDis <= 3.5\nsquared_error = 61248276.0\nsamples = 3\nvalue = 295352.0"] ;
697 -> 698 ;
699 [label="squared_error = 0.0\nsamples = 1\nvalue = 299705.0"] ;
698 -> 699 ;
700 [label="Country/Region/State _Germany <= 0.5\nsquared_error = 81026450.0\nsamples = 2\nvalue = 292450.0"] ;
698 -> 700 ;
701 [label="squared_error = 0.0\nsamples = 1\nvalue = 279720.0"] ;
700 -> 701 ;
702 [label="squared_error = 0.0\nsamples = 1\nvalue = 298815.0"] ;
700 -> 702 ;
703 [label="LOA <= 14.4\nsquared_error = 672222222.2\nsamples = 2\nvalue = 252333.3"] ;
697 -> 703 ;
704 [label="squared_error = 0.0\nsamples = 1\nvalue = 234000.0"] ;
703 -> 704 ;
705 [label="squared_error = 0.0\nsamples = 1\nvalue = 289000.0"] ;
703 -> 705 ;
706 [label="YearDis <= 3.5\nsquared_error = 4155443397.7\nsamples = 24\nvalue = 271138.2"] ;
622 -> 706 ;
707 [label="Draft <= 2.2\nsquared_error = 3463120844.0\nsamples = 16\nvalue = 297378.6"] ;
706 -> 707 ;
708 [label="Country/Region/State _Greece <= 0.5\nsquared_error = 2867883456.4\nsamples = 11\nvalue = 321533.1"] ;
707 -> 708 ;
709 [label="LWL <= 11.7\nsquared_error = 2336943916.1\nsamples = 9\nvalue = 334165.5"] ;
708 -> 709 ;
710 [label="squared_error = 0.0\nsamples = 1\nvalue = 388718.0"] ;
709 -> 710 ;
711 [label="Gini <= 32.0\nsquared_error = 2047976557.5\nsamples = 8\nvalue = 322042.8"] ;
709 -> 711 ;
712 [label="squared_error = 0.0\nsamples = 1\nvalue = 399659.0"] ;
711 -> 712 ;
713 [label="Gini <= 38.3\nsquared_error = 1456809540.2\nsamples = 7\nvalue = 312340.8"] ;
711 -> 713 ;
714 [label="Gini <= 33.6\nsquared_error = 1129724144.3\nsamples = 6\nvalue = 320520.0"] ;
713 -> 714 ;
715 [label="Beam <= 4.5\nsquared_error = 313746414.8\nsamples = 3\nvalue = 303677.5"] ;
714 -> 715 ;
716 [label="squared_error = 332223529.0\nsamples = 2\nvalue = 315828.0"] ;
715 -> 716 ;
717 [label="squared_error = 0.0\nsamples = 1\nvalue = 291527.0"] ;
715 -> 717 ;
718 [label="LWL <= 12.3\nsquared_error = 1335166164.2\nsamples = 3\nvalue = 342976.7"] ;
714 -> 718 ;
719 [label="squared_error = 0.0\nsamples = 1\nvalue = 291539.0"] ;
718 -> 719 ;
720 [label="YearDis <= 2.5\nsquared_error = 18374082.2\nsamples = 2\nvalue = 368695.5"] ;
718 -> 720 ;
721 [label="squared_error = 0.0\nsamples = 1\nvalue = 372982.0"] ;
720 -> 721 ;
722 [label="squared_error = 0.0\nsamples = 1\nvalue = 364409.0"] ;
720 -> 722 ;
723 [label="squared_error = 0.0\nsamples = 1\nvalue = 255086.0"] ;
713 -> 723 ;
724 [label="LOA <= 13.5\nsquared_error = 83092340.2\nsamples = 2\nvalue = 252054.5"] ;
708 -> 724 ;
725 [label="squared_error = 0.0\nsamples = 1\nvalue = 261170.0"] ;
724 -> 725 ;
726 [label="squared_error = 0.0\nsamples = 1\nvalue = 242939.0"] ;
724 -> 726 ;
727 [label="YearDis <= 2.5\nsquared_error = 749774190.0\nsamples = 5\nvalue = 245044.0"] ;
707 -> 727 ;
728 [label="squared_error = 0.0\nsamples = 1\nvalue = 241725.0"] ;
727 -> 728 ;
729 [label="squared_error = 897085245.4\nsamples = 4\nvalue = 245707.8"] ;
727 -> 729 ;
730 [label="Country/Region/State _United Kingdom <= 0.5\nsquared_error = 1094622445.1\nsamples = 8\nvalue = 215741.8"] ;
706 -> 730 ;
731 [label="Country/Region/State _British Virgin Islands <= 0.5\nsquared_error = 391148522.4\nsamples = 7\nvalue = 206079.1"] ;
730 -> 731 ;
732 [label="Displacement <= 10784.5\nsquared_error = 324032843.1\nsamples = 6\nvalue = 213105.8"] ;
731 -> 732 ;
733 [label="GDP <= 24502.0\nsquared_error = 356471658.2\nsamples = 5\nvalue = 210783.2"] ;
732 -> 733 ;
734 [label="squared_error = 571770602.0\nsamples = 3\nvalue = 208155.0"] ;
733 -> 734 ;
735 [label="squared_error = 7620360.2\nsamples = 2\nvalue = 214725.5"] ;
733 -> 735 ;
736 [label="squared_error = 0.0\nsamples = 1\nvalue = 224719.0"] ;
732 -> 736 ;
737 [label="squared_error = 0.0\nsamples = 1\nvalue = 184999.0"] ;
731 -> 737 ;
738 [label="squared_error = 0.0\nsamples = 1\nvalue = 293043.0"] ;
730 -> 738 ;
739 [label="Country/Region/State _Croatia <= 0.5\nsquared_error = 79821987136.2\nsamples = 6\nvalue = 371659.4"] ;
587 -> 739 ;
740 [label="squared_error = 0.0\nsamples = 1\nvalue = 1214531.0"] ;
739 -> 740 ;
741 [label="LWL <= 13.1\nsquared_error = 983376560.4\nsamples = 5\nvalue = 278007.0"] ;
739 -> 741 ;
742 [label="squared_error = 0.0\nsamples = 1\nvalue = 335256.0"] ;
741 -> 742 ;
743 [label="YearDis <= 2.5\nsquared_error = 60380801.8\nsamples = 4\nvalue = 261650.1"] ;
741 -> 743 ;
744 [label="squared_error = 0.0\nsamples = 1\nvalue = 278165.0"] ;
743 -> 744 ;
745 [label="squared_error = 17411392.6\nsamples = 3\nvalue = 258897.7"] ;
743 -> 745 ;
746 [label="Displacement <= 8385.5\nsquared_error = 5024300925.2\nsamples = 16\nvalue = 363527.6"] ;
586 -> 746 ;
747 [label="Length (ft) <= 42.0\nsquared_error = 427068055.6\nsamples = 4\nvalue = 271983.3"] ;
746 -> 747 ;
748 [label="GDP <= 70788.1\nsquared_error = 68377600.0\nsamples = 3\nvalue = 263380.0"] ;
747 -> 748 ;
749 [label="YearDis <= 2.5\nsquared_error = 187500.0\nsamples = 2\nvalue = 259250.0"] ;
748 -> 749 ;
750 [label="squared_error = 0.0\nsamples = 1\nvalue = 260000.0"] ;
749 -> 750 ;
751 [label="squared_error = 0.0\nsamples = 1\nvalue = 259000.0"] ;
749 -> 751 ;
752 [label="squared_error = 0.0\nsamples = 1\nvalue = 279900.0"] ;
748 -> 752 ;
753 [label="squared_error = 0.0\nsamples = 1\nvalue = 315000.0"] ;
747 -> 753 ;
754 [label="Draft <= 1.8\nsquared_error = 3135132111.4\nsamples = 12\nvalue = 390990.9"] ;
746 -> 754 ;
755 [label="squared_error = 0.0\nsamples = 1\nvalue = 583078.0"] ;
754 -> 755 ;
756 [label="SA <= 109.6\nsquared_error = 1255958788.4\nsamples = 11\nvalue = 380881.1"] ;
754 -> 756 ;
757 [label="Gini <= 45.9\nsquared_error = 459076843.8\nsamples = 9\nvalue = 368562.5"] ;
756 -> 757 ;
758 [label="SA <= 96.4\nsquared_error = 91601333.3\nsamples = 3\nvalue = 353966.7"] ;
757 -> 758 ;
759 [label="squared_error = 0.0\nsamples = 1\nvalue = 361980.0"] ;
758 -> 759 ;
760 [label="GDP <= 79088.4\nsquared_error = 25502500.0\nsamples = 2\nvalue = 343950.0"] ;
758 -> 760 ;
761 [label="squared_error = 0.0\nsamples = 1\nvalue = 349000.0"] ;
760 -> 761 ;
762 [label="squared_error = 0.0\nsamples = 1\nvalue = 338900.0"] ;
760 -> 762 ;
763 [label="SA <= 78.9\nsquared_error = 305473469.4\nsamples = 6\nvalue = 387328.6"] ;
757 -> 763 ;
764 [label="squared_error = 0.0\nsamples = 1\nvalue = 425000.0"] ;
763 -> 764 ;
765 [label="Country/Region/State _Virginia <= 0.5\nsquared_error = 80442500.0\nsamples = 5\nvalue = 381050.0"] ;
763 -> 765 ;
766 [label="GDP <= 72799.7\nsquared_error = 31586400.0\nsamples = 4\nvalue = 377760.0"] ;
765 -> 766 ;
767 [label="Beam <= 4.2\nsquared_error = 2500.0\nsamples = 3\nvalue = 374950.0"] ;
766 -> 767 ;
768 [label="squared_error = 0.0\nsamples = 1\nvalue = 374900.0"] ;
767 -> 768 ;
769 [label="squared_error = 0.0\nsamples = 2\nvalue = 375000.0"] ;
767 -> 769 ;
770 [label="squared_error = 0.0\nsamples = 1\nvalue = 389000.0"] ;
766 -> 770 ;
771 [label="squared_error = 0.0\nsamples = 1\nvalue = 397500.0"] ;
765 -> 771 ;
772 [label="Country/Region/State _Netherlands <= 0.5\nsquared_error = 380328200.0\nsamples = 2\nvalue = 446580.0"] ;
756 -> 772 ;
773 [label="squared_error = 0.0\nsamples = 1\nvalue = 419000.0"] ;
772 -> 773 ;
774 [label="squared_error = 0.0\nsamples = 1\nvalue = 460370.0"] ;
772 -> 774 ;
775 [label="GDP <= 24673.0\nsquared_error = 4141912603.7\nsamples = 190\nvalue = 212926.1"] ;
585 -> 775 ;
776 [label="Length (ft) <= 48.5\nsquared_error = 2397593724.1\nsamples = 102\nvalue = 185713.2"] ;
775 -> 776 ;
777 [label="Gini <= 46.0\nsquared_error = 1453733533.2\nsamples = 69\nvalue = 170853.7"] ;
776 -> 777 ;
778 [label="YearDis <= 6.5\nsquared_error = 1019339251.7\nsamples = 68\nvalue = 168011.8"] ;
777 -> 778 ;
779 [label="LOA <= 13.4\nsquared_error = 987705119.5\nsamples = 30\nvalue = 182624.6"] ;
778 -> 779 ;
780 [label="Length (ft) <= 43.5\nsquared_error = 1206220176.2\nsamples = 3\nvalue = 248992.7"] ;
779 -> 780 ;
781 [label="LWL <= 11.7\nsquared_error = 37252712.2\nsamples = 2\nvalue = 224688.5"] ;
780 -> 781 ;
782 [label="squared_error = 0.0\nsamples = 1\nvalue = 218585.0"] ;
781 -> 782 ;
783 [label="squared_error = 0.0\nsamples = 1\nvalue = 230792.0"] ;
781 -> 783 ;
784 [label="squared_error = 0.0\nsamples = 1\nvalue = 297601.0"] ;
780 -> 784 ;
785 [label="LWL <= 12.4\nsquared_error = 659912739.0\nsamples = 27\nvalue = 178200.0"] ;
779 -> 785 ;
786 [label="LOA <= 13.5\nsquared_error = 215004826.1\nsamples = 8\nvalue = 159890.5"] ;
785 -> 786 ;
787 [label="squared_error = 0.0\nsamples = 1\nvalue = 182204.0"] ;
786 -> 787 ;
788 [label="LOA <= 13.5\nsquared_error = 138511643.6\nsamples = 7\nvalue = 155427.8"] ;
786 -> 788 ;
789 [label="squared_error = 8497225.0\nsamples = 2\nvalue = 143820.0"] ;
788 -> 789 ;
790 [label="LWL <= 11.8\nsquared_error = 75475677.2\nsamples = 5\nvalue = 163166.3"] ;
788 -> 790 ;
791 [label="Country/Region/State _Greece <= 0.5\nsquared_error = 73770755.6\nsamples = 2\nvalue = 157910.3"] ;
790 -> 791 ;
792 [label="squared_error = 0.0\nsamples = 1\nvalue = 151837.0"] ;
791 -> 792 ;
793 [label="squared_error = 0.0\nsamples = 1\nvalue = 170057.0"] ;
791 -> 793 ;
794 [label="squared_error = 21929526.9\nsamples = 3\nvalue = 168422.3"] ;
790 -> 794 ;
795 [label="Country/Region/State _Greece <= 0.5\nsquared_error = 655463012.6\nsamples = 19\nvalue = 184858.1"] ;
785 -> 795 ;
796 [label="Draft <= 2.1\nsquared_error = 733145528.5\nsamples = 16\nvalue = 181850.7"] ;
795 -> 796 ;
797 [label="YearDis <= 5.5\nsquared_error = 137336636.6\nsamples = 7\nvalue = 169686.6"] ;
796 -> 797 ;
798 [label="squared_error = 0.0\nsamples = 1\nvalue = 173138.0"] ;
797 -> 798 ;
799 [label="squared_error = 167948245.2\nsamples = 6\nvalue = 168823.8"] ;
797 -> 799 ;
800 [label="Beam <= 4.6\nsquared_error = 945384600.5\nsamples = 9\nvalue = 189006.0"] ;
796 -> 800 ;
801 [label="Length (ft) <= 45.5\nsquared_error = 950785968.8\nsamples = 8\nvalue = 187228.9"] ;
800 -> 801 ;
802 [label="squared_error = 0.0\nsamples = 1\nvalue = 194351.0"] ;
801 -> 802 ;
803 [label="Country/Region/State _Croatia <= 0.5\nsquared_error = 1010564676.1\nsamples = 7\nvalue = 186754.1"] ;
801 -> 803 ;
804 [label="squared_error = 0.0\nsamples = 1\nvalue = 182271.0"] ;
803 -> 804 ;
805 [label="SA <= 96.3\nsquared_error = 1081209717.9\nsamples = 6\nvalue = 187074.4"] ;
803 -> 805 ;
806 [label="squared_error = 1261106719.0\nsamples = 5\nvalue = 186865.8"] ;
805 -> 806 ;
807 [label="squared_error = 0.0\nsamples = 1\nvalue = 188326.0"] ;
805 -> 807 ;
808 [label="squared_error = 0.0\nsamples = 1\nvalue = 217439.0"] ;
800 -> 808 ;
809 [label="Beam <= 4.4\nsquared_error = 82042337.9\nsamples = 3\nvalue = 198391.3"] ;
795 -> 809 ;
810 [label="squared_error = 110662206.8\nsamples = 2\nvalue = 200424.5"] ;
809 -> 810 ;
811 [label="squared_error = 0.0\nsamples = 1\nvalue = 194325.0"] ;
809 -> 811 ;
812 [label="Beam <= 4.4\nsquared_error = 762803379.6\nsamples = 38\nvalue = 157052.3"] ;
778 -> 812 ;
813 [label="YearDis <= 7.5\nsquared_error = 701159918.5\nsamples = 30\nvalue = 150689.5"] ;
812 -> 813 ;
814 [label="SA <= 77.8\nsquared_error = 595242956.5\nsamples = 15\nvalue = 162125.4"] ;
813 -> 814 ;
815 [label="squared_error = 2070.2\nsamples = 2\nvalue = 121302.5"] ;
814 -> 815 ;
816 [label="SA <= 81.5\nsquared_error = 506745801.9\nsamples = 13\nvalue = 165149.3"] ;
814 -> 816 ;
817 [label="squared_error = 0.0\nsamples = 1\nvalue = 194351.0"] ;
816 -> 817 ;
818 [label="SA <= 94.4\nsquared_error = 450172535.1\nsamples = 12\nvalue = 161499.1"] ;
816 -> 818 ;
819 [label="Gini <= 34.0\nsquared_error = 234239558.6\nsamples = 3\nvalue = 169315.4"] ;
818 -> 819 ;
820 [label="squared_error = 0.0\nsamples = 1\nvalue = 139671.0"] ;
819 -> 820 ;
821 [label="Country/Region/State _Greece <= 0.5\nsquared_error = 18177432.2\nsamples = 2\nvalue = 176726.5"] ;
819 -> 821 ;
822 [label="squared_error = 0.0\nsamples = 1\nvalue = 180990.0"] ;
821 -> 822 ;
823 [label="squared_error = 0.0\nsamples = 1\nvalue = 172463.0"] ;
821 -> 823 ;
824 [label="Country/Region/State _Antigua and Barbuda <= 0.5\nsquared_error = 486688479.7\nsamples = 9\nvalue = 159442.2"] ;
818 -> 824 ;
825 [label="Displacement <= 11800.0\nsquared_error = 508443024.4\nsamples = 8\nvalue = 159969.5"] ;
824 -> 825 ;
826 [label="Beam <= 4.4\nsquared_error = 6375105.2\nsamples = 2\nvalue = 156210.2"] ;
825 -> 826 ;
827 [label="squared_error = 0.0\nsamples = 1\nvalue = 151837.0"] ;
826 -> 827 ;
828 [label="squared_error = 0.0\nsamples = 1\nvalue = 157668.0"] ;
826 -> 828 ;
829 [label="squared_error = 646699668.8\nsamples = 6\nvalue = 161043.6"] ;
825 -> 829 ;
830 [label="squared_error = 0.0\nsamples = 1\nvalue = 149950.0"] ;
824 -> 830 ;
831 [label="Gini <= 36.5\nsquared_error = 390145094.6\nsamples = 15\nvalue = 134107.4"] ;
813 -> 831 ;
832 [label="Displacement <= 10950.0\nsquared_error = 178866196.6\nsamples = 13\nvalue = 129446.7"] ;
831 -> 832 ;
833 [label="Draft <= 2.1\nsquared_error = 133355024.0\nsamples = 10\nvalue = 124813.1"] ;
832 -> 833 ;
834 [label="LWL <= 12.3\nsquared_error = 25580141.1\nsamples = 6\nvalue = 116272.0"] ;
833 -> 834 ;
835 [label="Gini <= 34.0\nsquared_error = 5929393.2\nsamples = 4\nvalue = 114193.0"] ;
834 -> 835 ;
836 [label="LOA <= 13.4\nsquared_error = 186.9\nsamples = 2\nvalue = 115415.3"] ;
835 -> 836 ;
837 [label="squared_error = 0.0\nsamples = 1\nvalue = 115396.0"] ;
836 -> 837 ;
838 [label="squared_error = 0.0\nsamples = 1\nvalue = 115425.0"] ;
836 -> 838 ;
839 [label="squared_error = 9220332.2\nsamples = 2\nvalue = 112359.5"] ;
835 -> 839 ;
840 [label="Country/Region/State _Greece <= 0.5\nsquared_error = 36887402.2\nsamples = 2\nvalue = 121469.5"] ;
834 -> 840 ;
841 [label="squared_error = 0.0\nsamples = 1\nvalue = 115396.0"] ;
840 -> 841 ;
842 [label="squared_error = 0.0\nsamples = 1\nvalue = 127543.0"] ;
840 -> 842 ;
843 [label="LWL <= 11.8\nsquared_error = 95227664.2\nsamples = 4\nvalue = 133354.3"] ;
833 -> 843 ;
844 [label="squared_error = 0.0\nsamples = 1\nvalue = 151876.0"] ;
843 -> 844 ;
845 [label="Gini <= 34.0\nsquared_error = 44394016.6\nsamples = 3\nvalue = 130267.3"] ;
843 -> 845 ;
846 [label="squared_error = 8321670.8\nsamples = 2\nvalue = 134674.5"] ;
845 -> 846 ;
847 [label="squared_error = 0.0\nsamples = 1\nvalue = 121453.0"] ;
845 -> 847 ;
848 [label="YearDis <= 8.5\nsquared_error = 10000.0\nsamples = 3\nvalue = 145664.0"] ;
832 -> 848 ;
849 [label="squared_error = 0.0\nsamples = 1\nvalue = 145764.0"] ;
848 -> 849 ;
850 [label="Country/Region/State _Croatia <= 0.5\nsquared_error = 8888.9\nsamples = 2\nvalue = 145630.7"] ;
848 -> 850 ;
851 [label="squared_error = 0.0\nsamples = 1\nvalue = 145764.0"] ;
850 -> 851 ;
852 [label="squared_error = 0.0\nsamples = 1\nvalue = 145564.0"] ;
850 -> 852 ;
853 [label="Country/Region/State _Portugal <= 0.5\nsquared_error = 336594062.2\nsamples = 2\nvalue = 176054.5"] ;
831 -> 853 ;
854 [label="squared_error = 0.0\nsamples = 1\nvalue = 157708.0"] ;
853 -> 854 ;
855 [label="squared_error = 0.0\nsamples = 1\nvalue = 194401.0"] ;
853 -> 855 ;
856 [label="Gini <= 38.5\nsquared_error = 399902253.0\nsamples = 8\nvalue = 177837.3"] ;
812 -> 856 ;
857 [label="GDP <= 17237.5\nsquared_error = 223840204.1\nsamples = 7\nvalue = 174143.9"] ;
856 -> 857 ;
858 [label="Beam <= 4.5\nsquared_error = 70113634.6\nsamples = 4\nvalue = 166260.1"] ;
857 -> 858 ;
859 [label="squared_error = 0.0\nsamples = 1\nvalue = 144549.0"] ;
858 -> 859 ;
860 [label="GDP <= 12609.0\nsquared_error = 3171019.3\nsamples = 3\nvalue = 169361.7"] ;
858 -> 860 ;
861 [label="squared_error = 0.0\nsamples = 1\nvalue = 165000.0"] ;
860 -> 861 ;
862 [label="LOA <= 14.2\nsquared_error = 304.2\nsamples = 2\nvalue = 170088.7"] ;
860 -> 862 ;
863 [label="squared_error = 0.0\nsamples = 1\nvalue = 170101.0"] ;
862 -> 863 ;
864 [label="squared_error = 0.0\nsamples = 1\nvalue = 170064.0"] ;
862 -> 864 ;
865 [label="Displacement <= 10178.0\nsquared_error = 235443351.2\nsamples = 3\nvalue = 184655.5"] ;
857 -> 865 ;
866 [label="squared_error = 0.0\nsamples = 1\nvalue = 170101.0"] ;
865 -> 866 ;
867 [label="LWL <= 12.8\nsquared_error = 47219762.0\nsamples = 2\nvalue = 199210.0"] ;
865 -> 867 ;
868 [label="squared_error = 0.0\nsamples = 1\nvalue = 194351.0"] ;
867 -> 868 ;
869 [label="squared_error = 0.0\nsamples = 1\nvalue = 208928.0"] ;
867 -> 869 ;
870 [label="squared_error = 0.0\nsamples = 1\nvalue = 229546.0"] ;
856 -> 870 ;
871 [label="squared_error = 0.0\nsamples = 1\nvalue = 330000.0"] ;
777 -> 871 ;
872 [label="LWL <= 13.2\nsquared_error = 2733434551.1\nsamples = 33\nvalue = 226046.1"] ;
776 -> 872 ;
873 [label="YearDis <= 8.5\nsquared_error = 3158012772.0\nsamples = 19\nvalue = 241219.7"] ;
872 -> 873 ;
874 [label="GDP <= 17237.5\nsquared_error = 2843230604.1\nsamples = 9\nvalue = 269767.8"] ;
873 -> 874 ;
875 [label="LOA <= 14.5\nsquared_error = 3193131001.5\nsamples = 7\nvalue = 283624.4"] ;
874 -> 875 ;
876 [label="YearDis <= 7.5\nsquared_error = 4060316291.0\nsamples = 4\nvalue = 302204.8"] ;
875 -> 876 ;
877 [label="LWL <= 10.1\nsquared_error = 1362628808.0\nsamples = 2\nvalue = 282996.0"] ;
876 -> 877 ;
878 [label="squared_error = 0.0\nsamples = 1\nvalue = 230792.0"] ;
877 -> 878 ;
879 [label="squared_error = 0.0\nsamples = 1\nvalue = 309098.0"] ;
877 -> 879 ;
880 [label="squared_error = 6723180025.0\nsamples = 2\nvalue = 331018.0"] ;
876 -> 880 ;
881 [label="Country/Region/State _Turkey <= 0.5\nsquared_error = 213456882.7\nsamples = 3\nvalue = 252657.0"] ;
875 -> 881 ;
882 [label="squared_error = 368449.0\nsamples = 2\nvalue = 242332.0"] ;
881 -> 882 ;
883 [label="squared_error = 0.0\nsamples = 1\nvalue = 273307.0"] ;
881 -> 883 ;
884 [label="Length (ft) <= 53.5\nsquared_error = 32788802.0\nsamples = 2\nvalue = 232817.0"] ;
874 -> 884 ;
885 [label="squared_error = 0.0\nsamples = 1\nvalue = 236866.0"] ;
884 -> 885 ;
886 [label="squared_error = 0.0\nsamples = 1\nvalue = 224719.0"] ;
884 -> 886 ;
887 [label="Gini <= 34.0\nsquared_error = 2428906608.1\nsamples = 10\nvalue = 221592.9"] ;
873 -> 887 ;
888 [label="squared_error = 951292336.7\nsamples = 7\nvalue = 206174.3"] ;
887 -> 888 ;
889 [label="GDP <= 14123.5\nsquared_error = 4008949168.7\nsamples = 3\nvalue = 267848.8"] ;
887 -> 889 ;
890 [label="squared_error = 0.0\nsamples = 1\nvalue = 241725.0"] ;
889 -> 890 ;
891 [label="squared_error = 5041954307.6\nsamples = 2\nvalue = 276556.7"] ;
889 -> 891 ;
892 [label="LOA <= 15.2\nsquared_error = 808782942.0\nsamples = 14\nvalue = 198733.5"] ;
872 -> 892 ;
893 [label="Country/Region/State _Croatia <= 0.5\nsquared_error = 748226719.8\nsamples = 12\nvalue = 194268.5"] ;
892 -> 893 ;
894 [label="LOA <= 15.0\nsquared_error = 719593090.2\nsamples = 7\nvalue = 204087.7"] ;
893 -> 894 ;
895 [label="squared_error = 0.0\nsamples = 1\nvalue = 179775.0"] ;
894 -> 895 ;
896 [label="YearDis <= 8.0\nsquared_error = 724587590.5\nsamples = 6\nvalue = 208139.8"] ;
894 -> 896 ;
897 [label="Draft <= 1.8\nsquared_error = 931330932.7\nsamples = 3\nvalue = 220184.0"] ;
896 -> 897 ;
898 [label="squared_error = 0.0\nsamples = 1\nvalue = 224719.0"] ;
897 -> 898 ;
899 [label="squared_error = 1381571730.2\nsamples = 2\nvalue = 217916.5"] ;
897 -> 899 ;
900 [label="Country/Region/State _Antigua and Barbuda <= 0.5\nsquared_error = 227720346.9\nsamples = 3\nvalue = 196095.7"] ;
896 -> 900 ;
901 [label="squared_error = 249245156.2\nsamples = 2\nvalue = 201643.5"] ;
900 -> 901 ;
902 [label="squared_error = 0.0\nsamples = 1\nvalue = 185000.0"] ;
900 -> 902 ;
903 [label="YearDis <= 8.5\nsquared_error = 537913858.1\nsamples = 5\nvalue = 182812.8"] ;
893 -> 903 ;
904 [label="SA <= 122.0\nsquared_error = 669204224.7\nsamples = 3\nvalue = 171677.0"] ;
903 -> 904 ;
905 [label="squared_error = 0.0\nsamples = 1\nvalue = 144549.0"] ;
904 -> 905 ;
906 [label="YearDis <= 5.5\nsquared_error = 451860049.0\nsamples = 2\nvalue = 185241.0"] ;
904 -> 906 ;
907 [label="squared_error = 0.0\nsamples = 1\nvalue = 163984.0"] ;
906 -> 907 ;
908 [label="squared_error = 0.0\nsamples = 1\nvalue = 206498.0"] ;
906 -> 908 ;
909 [label="Displacement <= 12526.5\nsquared_error = 158609923.6\nsamples = 2\nvalue = 193948.7"] ;
903 -> 909 ;
910 [label="squared_error = 0.0\nsamples = 1\nvalue = 176138.0"] ;
909 -> 910 ;
911 [label="squared_error = 0.0\nsamples = 1\nvalue = 202854.0"] ;
909 -> 911 ;
912 [label="Gini <= 34.0\nsquared_error = 230538672.2\nsamples = 2\nvalue = 227755.5"] ;
892 -> 912 ;
913 [label="squared_error = 0.0\nsamples = 1\nvalue = 212572.0"] ;
912 -> 913 ;
914 [label="squared_error = 0.0\nsamples = 1\nvalue = 242939.0"] ;
912 -> 914 ;
915 [label="Beam <= 4.1\nsquared_error = 4318935071.0\nsamples = 88\nvalue = 244141.0"] ;
775 -> 915 ;
916 [label="Country/Region/State _Spain <= 0.5\nsquared_error = 6425784573.0\nsamples = 8\nvalue = 361653.2"] ;
915 -> 916 ;
917 [label="GDP <= 59851.4\nsquared_error = 3706164888.8\nsamples = 6\nvalue = 332882.0"] ;
916 -> 917 ;
918 [label="YearDis <= 8.5\nsquared_error = 2118211313.8\nsamples = 5\nvalue = 349150.9"] ;
917 -> 918 ;
919 [label="YearDis <= 5.5\nsquared_error = 46720618.2\nsamples = 3\nvalue = 377820.4"] ;
918 -> 919 ;
920 [label="squared_error = 0.0\nsamples = 1\nvalue = 370482.0"] ;
919 -> 920 ;
921 [label="Draft <= 1.9\nsquared_error = 18032014.2\nsamples = 2\nvalue = 382712.7"] ;
919 -> 921 ;
922 [label="squared_error = 0.0\nsamples = 1\nvalue = 388718.0"] ;
921 -> 922 ;
923 [label="squared_error = 0.0\nsamples = 1\nvalue = 379710.0"] ;
921 -> 923 ;
924 [label="Displacement <= 5479.5\nsquared_error = 104939536.0\nsamples = 2\nvalue = 277477.0"] ;
918 -> 924 ;
925 [label="squared_error = 0.0\nsamples = 1\nvalue = 267233.0"] ;
924 -> 925 ;
926 [label="squared_error = 0.0\nsamples = 1\nvalue = 287721.0"] ;
924 -> 926 ;
927 [label="squared_error = 0.0\nsamples = 1\nvalue = 219000.0"] ;
917 -> 927 ;
928 [label="LOA <= 13.2\nsquared_error = 748624321.0\nsamples = 2\nvalue = 476738.0"] ;
916 -> 928 ;
929 [label="squared_error = 0.0\nsamples = 1\nvalue = 449377.0"] ;
928 -> 929 ;
930 [label="squared_error = 0.0\nsamples = 1\nvalue = 504099.0"] ;
928 -> 930 ;
931 [label="Length (ft) <= 49.5\nsquared_error = 2968781732.9\nsamples = 80\nvalue = 234814.6"] ;
915 -> 931 ;
932 [label="Length (ft) <= 43.5\nsquared_error = 1882515487.3\nsamples = 75\nvalue = 226009.1"] ;
931 -> 932 ;
933 [label="YearDis <= 6.5\nsquared_error = 1468430300.8\nsamples = 12\nvalue = 189008.7"] ;
932 -> 933 ;
934 [label="GDP <= 55695.2\nsquared_error = 6002500.0\nsamples = 2\nvalue = 277450.0"] ;
933 -> 934 ;
935 [label="squared_error = 0.0\nsamples = 1\nvalue = 275000.0"] ;
934 -> 935 ;
936 [label="squared_error = 0.0\nsamples = 1\nvalue = 279900.0"] ;
934 -> 936 ;
937 [label="YearDis <= 8.5\nsquared_error = 551284767.5\nsamples = 10\nvalue = 177953.6"] ;
933 -> 937 ;
938 [label="Country/Region/State _Germany <= 0.5\nsquared_error = 205184105.6\nsamples = 7\nvalue = 187008.5"] ;
937 -> 938 ;
939 [label="Displacement <= 9975.0\nsquared_error = 89265243.2\nsamples = 5\nvalue = 193746.1"] ;
938 -> 939 ;
940 [label="Country/Region/State _Italy <= 0.5\nsquared_error = 77541127.7\nsamples = 4\nvalue = 195340.6"] ;
939 -> 940 ;
941 [label="LOA <= 13.1\nsquared_error = 48337953.5\nsamples = 3\nvalue = 191630.8"] ;
940 -> 941 ;
942 [label="squared_error = 0.0\nsamples = 1\nvalue = 195000.0"] ;
941 -> 942 ;
943 [label="squared_error = 73973338.9\nsamples = 2\nvalue = 188261.7"] ;
941 -> 943 ;
944 [label="squared_error = 0.0\nsamples = 1\nvalue = 206470.0"] ;
940 -> 944 ;
945 [label="squared_error = 0.0\nsamples = 1\nvalue = 180990.0"] ;
939 -> 945 ;
946 [label="YearDis <= 7.5\nsquared_error = 8195850.9\nsamples = 2\nvalue = 166795.7"] ;
938 -> 946 ;
947 [label="squared_error = 0.0\nsamples = 1\nvalue = 162747.0"] ;
946 -> 947 ;
948 [label="squared_error = 0.0\nsamples = 1\nvalue = 168820.0"] ;
946 -> 948 ;
949 [label="Gini <= 40.2\nsquared_error = 605684035.7\nsamples = 3\nvalue = 150788.8"] ;
937 -> 949 ;
950 [label="squared_error = 158645546.9\nsamples = 2\nvalue = 138051.7"] ;
949 -> 950 ;
951 [label="squared_error = 0.0\nsamples = 1\nvalue = 189000.0"] ;
949 -> 951 ;
952 [label="Draft <= 2.1\nsquared_error = 1660933024.2\nsamples = 63\nvalue = 232805.0"] ;
932 -> 952 ;
953 [label="LWL <= 11.4\nsquared_error = 1344931754.6\nsamples = 21\nvalue = 211283.4"] ;
952 -> 953 ;
954 [label="squared_error = 0.0\nsamples = 1\nvalue = 303674.0"] ;
953 -> 954 ;
955 [label="Length (ft) <= 44.5\nsquared_error = 919081165.4\nsamples = 20\nvalue = 206150.6"] ;
953 -> 955 ;
956 [label="squared_error = 0.0\nsamples = 1\nvalue = 144549.0"] ;
955 -> 956 ;
957 [label="SA <= 80.2\nsquared_error = 736793023.4\nsamples = 19\nvalue = 209774.2"] ;
955 -> 957 ;
958 [label="Country/Region/State _Spain <= 0.5\nsquared_error = 332770564.0\nsamples = 2\nvalue = 151859.0"] ;
957 -> 958 ;
959 [label="squared_error = 0.0\nsamples = 1\nvalue = 170101.0"] ;
958 -> 959 ;
960 [label="squared_error = 0.0\nsamples = 1\nvalue = 133617.0"] ;
958 -> 960 ;
961 [label="Country/Region/State _Hawaii <= 0.5\nsquared_error = 539306278.1\nsamples = 17\nvalue = 213393.9"] ;
957 -> 961 ;
962 [label="Country/Region/State _Washington <= 0.5\nsquared_error = 430324668.0\nsamples = 16\nvalue = 211406.6"] ;
961 -> 962 ;
963 [label="GDP <= 44770.0\nsquared_error = 382726567.8\nsamples = 15\nvalue = 212820.2"] ;
962 -> 963 ;
964 [label="Beam <= 4.4\nsquared_error = 241975003.2\nsamples = 10\nvalue = 207618.6"] ;
963 -> 964 ;
965 [label="squared_error = 0.0\nsamples = 1\nvalue = 249013.0"] ;
964 -> 965 ;
966 [label="Country/Region/State _British Virgin Islands <= 0.5\nsquared_error = 159779754.6\nsamples = 9\nvalue = 205439.9"] ;
964 -> 966 ;
967 [label="SA <= 104.8\nsquared_error = 127661677.3\nsamples = 8\nvalue = 206908.8"] ;
966 -> 967 ;
968 [label="Country/Region/State _Spain <= 0.5\nsquared_error = 1488400.0\nsamples = 2\nvalue = 212582.0"] ;
967 -> 968 ;
969 [label="squared_error = 0.0\nsamples = 1\nvalue = 213192.0"] ;
968 -> 969 ;
970 [label="squared_error = 0.0\nsamples = 1\nvalue = 210142.0"] ;
968 -> 970 ;
971 [label="Displacement <= 12526.5\nsquared_error = 159049680.2\nsamples = 6\nvalue = 204726.8"] ;
967 -> 971 ;
972 [label="GDP <= 37083.5\nsquared_error = 361278.0\nsamples = 3\nvalue = 205964.0"] ;
971 -> 972 ;
973 [label="squared_error = 19.4\nsamples = 2\nvalue = 206501.6"] ;
972 -> 973 ;
974 [label="squared_error = 0.0\nsamples = 1\nvalue = 205292.0"] ;
972 -> 974 ;
975 [label="squared_error = 504905049.0\nsamples = 3\nvalue = 201943.0"] ;
971 -> 975 ;
976 [label="squared_error = 0.0\nsamples = 1\nvalue = 179000.0"] ;
966 -> 976 ;
977 [label="Length (ft) <= 48.0\nsquared_error = 501886720.7\nsamples = 5\nvalue = 223223.5"] ;
963 -> 977 ;
978 [label="Country/Region/State _Maryland <= 0.5\nsquared_error = 201276077.7\nsamples = 4\nvalue = 217253.8"] ;
977 -> 978 ;
979 [label="LWL <= 11.8\nsquared_error = 68721666.1\nsamples = 3\nvalue = 210754.9"] ;
978 -> 979 ;
980 [label="squared_error = 0.0\nsamples = 1\nvalue = 199000.0"] ;
979 -> 980 ;
981 [label="LOA <= 14.3\nsquared_error = 18831399.4\nsamples = 2\nvalue = 215456.8"] ;
979 -> 981 ;
982 [label="squared_error = 0.0\nsamples = 1\nvalue = 210142.0"] ;
981 -> 982 ;
983 [label="squared_error = 0.0\nsamples = 1\nvalue = 219000.0"] ;
981 -> 983 ;
984 [label="squared_error = 0.0\nsamples = 1\nvalue = 240000.0"] ;
978 -> 984 ;
985 [label="squared_error = 0.0\nsamples = 1\nvalue = 276951.0"] ;
977 -> 985 ;
986 [label="squared_error = 0.0\nsamples = 1\nvalue = 169000.0"] ;
962 -> 986 ;
987 [label="squared_error = 0.0\nsamples = 1\nvalue = 275000.0"] ;
961 -> 987 ;
988 [label="GDP <= 37083.5\nsquared_error = 1381933062.5\nsamples = 42\nvalue = 246435.4"] ;
952 -> 988 ;
989 [label="Draft <= 2.2\nsquared_error = 653783206.7\nsamples = 23\nvalue = 226687.8"] ;
988 -> 989 ;
990 [label="Displacement <= 11479.5\nsquared_error = 759876318.1\nsamples = 9\nvalue = 240318.9"] ;
989 -> 990 ;
991 [label="YearDis <= 8.5\nsquared_error = 47213283.6\nsamples = 2\nvalue = 208927.7"] ;
990 -> 991 ;
992 [label="squared_error = 0.0\nsamples = 1\nvalue = 218645.0"] ;
991 -> 992 ;
993 [label="squared_error = 0.0\nsamples = 1\nvalue = 204069.0"] ;
991 -> 993 ;
994 [label="YearDis <= 6.0\nsquared_error = 589364946.6\nsamples = 7\nvalue = 249736.3"] ;
990 -> 994 ;
995 [label="LWL <= 13.0\nsquared_error = 642661029.8\nsamples = 3\nvalue = 260515.8"] ;
994 -> 995 ;
996 [label="squared_error = 1369.0\nsamples = 2\nvalue = 291564.0"] ;
995 -> 996 ;
997 [label="squared_error = 0.0\nsamples = 1\nvalue = 239817.0"] ;
995 -> 997 ;
998 [label="Draft <= 2.1\nsquared_error = 303673623.0\nsamples = 4\nvalue = 238956.8"] ;
994 -> 998 ;
999 [label="squared_error = 92112.2\nsamples = 2\nvalue = 217789.5"] ;
998 -> 999 ;
1000 [label="Country/Region/State _Italy <= 0.5\nsquared_error = 8222864.2\nsamples = 2\nvalue = 253068.3"] ;
998 -> 1000 ;
1001 [label="squared_error = 0.0\nsamples = 1\nvalue = 249013.0"] ;
1000 -> 1001 ;
1002 [label="squared_error = 0.0\nsamples = 1\nvalue = 255096.0"] ;
1000 -> 1002 ;
1003 [label="YearDis <= 8.5\nsquared_error = 385543768.6\nsamples = 14\nvalue = 217827.6"] ;
989 -> 1003 ;
1004 [label="YearDis <= 5.5\nsquared_error = 307799063.1\nsamples = 12\nvalue = 221240.5"] ;
1003 -> 1004 ;
1005 [label="Displacement <= 12052.5\nsquared_error = 2265636.6\nsamples = 3\nvalue = 207131.6"] ;
1004 -> 1005 ;
1006 [label="squared_error = 0.0\nsamples = 1\nvalue = 210142.0"] ;
1005 -> 1006 ;
1007 [label="squared_error = 12.0\nsamples = 2\nvalue = 206379.0"] ;
1005 -> 1007 ;
1008 [label="YearDis <= 7.5\nsquared_error = 319303071.4\nsamples = 9\nvalue = 226667.0"] ;
1004 -> 1008 ;
1009 [label="Gini <= 33.1\nsquared_error = 328636460.7\nsamples = 8\nvalue = 223929.2"] ;
1008 -> 1009 ;
1010 [label="Length (ft) <= 45.0\nsquared_error = 231286502.2\nsamples = 4\nvalue = 213179.5"] ;
1009 -> 1010 ;
1011 [label="SA <= 96.7\nsquared_error = 36887402.2\nsamples = 2\nvalue = 223504.5"] ;
1010 -> 1011 ;
1012 [label="squared_error = 0.0\nsamples = 1\nvalue = 229578.0"] ;
1011 -> 1012 ;
1013 [label="squared_error = 0.0\nsamples = 1\nvalue = 217431.0"] ;
1011 -> 1013 ;
1014 [label="squared_error = 212474352.2\nsamples = 2\nvalue = 202854.5"] ;
1010 -> 1014 ;
1015 [label="Length (ft) <= 45.5\nsquared_error = 280500743.0\nsamples = 4\nvalue = 230071.9"] ;
1009 -> 1015 ;
1016 [label="squared_error = 327150026.8\nsamples = 3\nvalue = 229951.8"] ;
1015 -> 1016 ;
1017 [label="squared_error = 0.0\nsamples = 1\nvalue = 230792.0"] ;
1015 -> 1017 ;
1018 [label="squared_error = 0.0\nsamples = 1\nvalue = 241725.0"] ;
1008 -> 1018 ;
1019 [label="Gini <= 33.1\nsquared_error = 36905625.0\nsamples = 2\nvalue = 187111.0"] ;
1003 -> 1019 ;
1020 [label="squared_error = 0.0\nsamples = 1\nvalue = 193186.0"] ;
1019 -> 1020 ;
1021 [label="squared_error = 0.0\nsamples = 1\nvalue = 181036.0"] ;
1019 -> 1021 ;
1022 [label="Gini <= 30.5\nsquared_error = 1212721150.7\nsamples = 19\nvalue = 270571.4"] ;
988 -> 1022 ;
1023 [label="Beam <= 4.6\nsquared_error = 251647179.2\nsamples = 4\nvalue = 306283.3"] ;
1022 -> 1023 ;
1024 [label="Displacement <= 12104.5\nsquared_error = 27277014.4\nsamples = 3\nvalue = 299517.0"] ;
1023 -> 1024 ;
1025 [label="SA <= 96.4\nsquared_error = 3015432.2\nsamples = 2\nvalue = 293263.5"] ;
1024 -> 1025 ;
1026 [label="squared_error = 0.0\nsamples = 1\nvalue = 295000.0"] ;
1025 -> 1026 ;
1027 [label="squared_error = 0.0\nsamples = 1\nvalue = 291527.0"] ;
1025 -> 1027 ;
1028 [label="squared_error = 0.0\nsamples = 1\nvalue = 303686.0"] ;
1024 -> 1028 ;
1029 [label="squared_error = 0.0\nsamples = 1\nvalue = 340115.0"] ;
1023 -> 1029 ;
1030 [label="YearDis <= 6.5\nsquared_error = 1018819890.0\nsamples = 15\nvalue = 260368.0"] ;
1022 -> 1030 ;
1031 [label="Gini <= 45.3\nsquared_error = 487829594.1\nsamples = 8\nvalue = 276666.9"] ;
1030 -> 1031 ;
1032 [label="LWL <= 12.5\nsquared_error = 642802402.2\nsamples = 3\nvalue = 264739.3"] ;
1031 -> 1032 ;
1033 [label="YearDis <= 5.5\nsquared_error = 24000000.0\nsamples = 2\nvalue = 275900.0"] ;
1032 -> 1033 ;
1034 [label="squared_error = 0.0\nsamples = 1\nvalue = 279900.0"] ;
1033 -> 1034 ;
1035 [label="squared_error = 0.0\nsamples = 1\nvalue = 269900.0"] ;
1033 -> 1035 ;
1036 [label="squared_error = 0.0\nsamples = 1\nvalue = 208936.0"] ;
1032 -> 1036 ;
1037 [label="Country/Region/State _California <= 0.5\nsquared_error = 184876093.8\nsamples = 5\nvalue = 285612.5"] ;
1031 -> 1037 ;
1038 [label="Draft <= 2.2\nsquared_error = 30865600.0\nsamples = 4\nvalue = 295580.0"] ;
1037 -> 1038 ;
1039 [label="Beam <= 4.3\nsquared_error = 3601875.0\nsamples = 3\nvalue = 298225.0"] ;
1038 -> 1039 ;
1040 [label="LOA <= 13.8\nsquared_error = 180000.0\nsamples = 2\nvalue = 299300.0"] ;
1039 -> 1040 ;
1041 [label="squared_error = 0.0\nsamples = 1\nvalue = 299900.0"] ;
1040 -> 1041 ;
1042 [label="squared_error = 0.0\nsamples = 1\nvalue = 299000.0"] ;
1040 -> 1042 ;
1043 [label="squared_error = 0.0\nsamples = 1\nvalue = 295000.0"] ;
1039 -> 1043 ;
1044 [label="squared_error = 0.0\nsamples = 1\nvalue = 285000.0"] ;
1038 -> 1044 ;
1045 [label="squared_error = 0.0\nsamples = 1\nvalue = 269000.0"] ;
1037 -> 1045 ;
1046 [label="GDP <= 43643.5\nsquared_error = 486874703.0\nsamples = 7\nvalue = 227770.1"] ;
1030 -> 1046 ;
1047 [label="squared_error = 0.0\nsamples = 1\nvalue = 176131.0"] ;
1046 -> 1047 ;
1048 [label="Gini <= 46.4\nsquared_error = 49514722.2\nsamples = 6\nvalue = 236376.7"] ;
1046 -> 1048 ;
1049 [label="LWL <= 12.1\nsquared_error = 14592400.0\nsamples = 2\nvalue = 245180.0"] ;
1048 -> 1049 ;
1050 [label="squared_error = 0.0\nsamples = 1\nvalue = 249000.0"] ;
1049 -> 1050 ;
1051 [label="squared_error = 0.0\nsamples = 1\nvalue = 241360.0"] ;
1049 -> 1051 ;
1052 [label="Gini <= 47.6\nsquared_error = 8851875.0\nsamples = 4\nvalue = 231975.0"] ;
1048 -> 1052 ;
1053 [label="squared_error = 0.0\nsamples = 1\nvalue = 229000.0"] ;
1052 -> 1053 ;
1054 [label="SA <= 95.9\nsquared_error = 7868888.9\nsamples = 3\nvalue = 232966.7"] ;
1052 -> 1054 ;
1055 [label="YearDis <= 7.5\nsquared_error = 2500.0\nsamples = 2\nvalue = 234950.0"] ;
1054 -> 1055 ;
1056 [label="squared_error = 0.0\nsamples = 1\nvalue = 234900.0"] ;
1055 -> 1056 ;
1057 [label="squared_error = 0.0\nsamples = 1\nvalue = 235000.0"] ;
1055 -> 1057 ;
1058 [label="squared_error = 0.0\nsamples = 1\nvalue = 229000.0"] ;
1054 -> 1058 ;
1059 [label="Beam <= 4.4\nsquared_error = 4236535969.9\nsamples = 5\nvalue = 336959.1"] ;
931 -> 1059 ;
1060 [label="Country/Region/State _California <= 0.5\nsquared_error = 578000000.0\nsamples = 2\nvalue = 423500.0"] ;
1059 -> 1060 ;
1061 [label="squared_error = 0.0\nsamples = 1\nvalue = 389500.0"] ;
1060 -> 1061 ;
1062 [label="squared_error = 0.0\nsamples = 1\nvalue = 440500.0"] ;
1060 -> 1062 ;
1063 [label="Country/Region/State _Virginia <= 0.5\nsquared_error = 1219177483.8\nsamples = 3\nvalue = 299870.1"] ;
1059 -> 1063 ;
1064 [label="LOA <= 12.9\nsquared_error = 19903464.2\nsamples = 2\nvalue = 269772.8"] ;
